tree
version=v4
num_class=1
num_tree_per_iteration=1
label_index=0
max_feature_idx=66
objective=regression
feature_names=Column_0 Column_1 Column_2 Column_3 Column_4 Column_5 Column_6 Column_7 Column_8 Column_9 Column_10 Column_11 Column_12 Column_13 Column_14 Column_15 Column_16 Column_17 Column_18 Column_19 Column_20 Column_21 Column_22 Column_23 Column_24 Column_25 Column_26 Column_27 Column_28 Column_29 Column_30 Column_31 Column_32 Column_33 Column_34 Column_35 Column_36 Column_37 Column_38 Column_39 Column_40 Column_41 Column_42 Column_43 Column_44 Column_45 Column_46 Column_47 Column_48 Column_49 Column_50 Column_51 Column_52 Column_53 Column_54 Column_55 Column_56 Column_57 Column_58 Column_59 Column_60 Column_61 Column_62 Column_63 Column_64 Column_65 Column_66
feature_infos=[-48.777778625488281:63] [-63.275260925292969:58.222221374511719] [-45.888889312744141:59.769901275634766] [-72.631843566894531:56] [-53.967853546142578:54] [-77.034599304199219:8.335209846496582] [-62.795581817626953:44.169628143310547] [-55:85.715187072753906] [-45.190078735351562:65.840652465820312] [-58.111110687255859:55] [-59.333332061767578:75.644432067871094] [-61.407978057861328:55.746070861816406] [-66.194221496582031:40.073017120361328] [-62.407978057861328:49.833911895751953] [-86.303810119628906:20.666666030883789] [-62.449684143066406:73] [-57.265754699707031:46.777778625488281] [-53.801891326904297:69.888885498046875] [-84.111114501953125:70.019447326660156] [-65.941932678222656:51.222221374511719] [-39.644016265869141:59.544731140136719] [-73.626708984375:57.111110687255859] [-66.666664123535156:57.342239379882812] [-55.257240295410156:61.222221374511719] [-43:64.888885498046875] [-42.444442749023438:76.784751892089844] [-82.444442749023438:33.837898254394531] [-67.333335876464844:57.786415100097656] [-53:76.946502685546875] [-58.006397247314453:55.444442749023438] [-59.444442749023438:62.903564453125] [-47.791095733642578:72.935707092285156] [-50.222221374511719:67.563941955566406] [-42.709682464599609:55.406848907470703] [-60.555976867675781:60] [-66.777778625488281:75] [-62.666667938232422:65.38201904296875] [-72.333335876464844:54.299388885498047] [-60.38287353515625:56] [-67.111114501953125:60.256385803222656] [-78.310218811035156:42.333332061767578] [-51.069622039794922:61.111110687255859] [-65.9268798828125:67.555557250976562] [-52.222221374511719:64.046157836914062] [-46.096076965332031:60.534648895263672] [-25.224674224853516:68.666664123535156] [-60.983863830566406:71.019447326660156] [-84:50.888889312744141] [-21.777778625488281:82.8648681640625] [-77.386550903320312:11.55555534362793] [-49.555557250976562:57.406017303466797] [-60.978511810302734:63.444442749023438] [-56.928318023681641:38.273525238037109] [-27.888479232788086:71.444442749023438] [-37.602428436279297:67.777778625488281] [-38.888889312744141:74] [-23.052734375:75.27655029296875] [-47.56610107421875:72.967857360839844] [-62.614833831787109:67.912223815917969] [-59.449684143066406:45.59613037109375] [-62.250400543212891:36.111110687255859] [-62.333332061767578:52.511276245117188] [-68.777778625488281:58.540260314941406] [-42:65.644943237304688] [0:100] [0:1] [0:1]
tree_sizes=2655 2694 2703 2702 2701 2696 2714 2702 2705 2709 2706 2699 2713 2712 2695 2714 2688 2713 2711 2719 2714 2695 2719 2723 2737 2709 2724 2688 2699 2715 2692 2727 2724 2706 2714 2735 2698 2736 2720 2724 2723 2726 2722 2723 2717 2724 2696 2722 2725 2719 2722 2751 2713 2735 2734 2737 2712 2710 2718 2721 2718 2713 2731 2711 2746 2732 2711 2708 2739 2727 2710 2729 2746

Tree=0
num_leaves=31
num_cat=0
split_feature=24 44 30 66 38 28 60 22 20 43 37 59 24 24 20 29 54 17 44 30 54 44 9 43 20 11 63 44 57 35
split_gain=4.26488e+06 1.96324e+06 540688 526860 493786 468787 268445 247437 177947 161012 150448 141627 130152 123980 105175 100670 114568 99157.3 93918.4 93046.7 91213.6 90737.9 90039.5 83852.2 77542 75916.4 74504.6 99753.5 73569.6 70246.7
threshold=47.207365036010749 16.977957725524906 42.000120162963874 0.94896170496940624 -16.589373588562008 39.39666938781739 -45.080074310302727 -14.190118312835692 30.889325141906742 -42.611112594604485 -25.983619689941403 -15.934635162353514 48.222505569458015 41.251249313354499 44.955287933349616 40.405851364135749 53.75212478637696 -17.743203163146969 29.528487205505375 52.62483215332032 35.223617553710945 10.887275218963625 37.534143447875984 -5.2602202892303458 53.818143844604499 -24.919946670532223 25.559511184692386 5.2241320610046396 -18.620921134948727 14.398890972137453
decision_type=2 2 2 2 2 2 2 2 2 2 2 2 2 2 2 2 2 2 2 2 2 2 2 2 2 2 2 2 2 2
left_child=1 2 6 5 10 9 -1 14 29 25 20 18 -9 -8 -7 16 26 -14 -6 -10 -3 22 -5 -15 -19 -2 27 -11 -25 -4
right_child=3 4 8 21 11 7 13 12 19 15 -12 -13 17 23 -16 -17 -18 24 -20 -21 -22 -23 -24 28 -26 -27 -28 -29 -30 -31
leaf_value=106.24478352450713 111.99913611477086 105.08713735146591 109.44209228788868 109.48748426366227 107.29852800451087 107.43528883626492 107.18878954992365 108.63258664739327 109.45153200836666 112.25886800685443 104.01389893661403 109.69531685320821 110.13428640654406 110.8028031888806 109.23125360294786 109.57559211374611 114.16940803620494 111.04031033530076 105.2832951519994 111.24256945846847 107.42347082787575 106.99548759801172 106.04203001295306 107.48458593049952 113.57355398285212 114.88884836838999 110.37961149856329 110.49811552287805 108.95664908316449 107.1163520955965
leaf_weight=329 51 254 47 108 165 115 279 96 357 211 424 43 331 38 280 98 33 134 89 91 50 124 23 148 39 41 204 130 199 105
leaf_count=329 51 254 47 108 165 115 279 96 357 211 424 43 331 38 280 98 33 134 89 91 50 124 23 148 39 41 204 130 199 105
internal_value=108.362 107.03 108.129 110.089 105.323 110.396 107.413 109.68 109.314 111.324 104.623 107.042 110.32 107.991 108.708 111.057 111.309 110.641 106.592 109.815 105.471 107.965 108.883 108.573 111.611 113.287 111.135 111.588 108.329 107.835
internal_weight=4636 2618 1593 2018 1025 1763 993 995 600 768 728 297 600 664 395 676 578 504 254 448 304 255 131 385 173 92 545 341 347 152
internal_count=4636 2618 1593 2018 1025 1763 993 995 600 768 728 297 600 664 395 676 578 504 254 448 304 255 131 385 173 92 545 341 347 152
is_linear=0
shrinkage=1


Tree=1
num_leaves=31
num_cat=0
split_feature=24 44 38 66 38 28 22 60 44 28 48 59 24 13 20 24 17 43 44 30 44 1 40 20 40 38 9 38 45 29
split_gain=3.84905e+06 1.77182e+06 494457 475491 447554 423080 223312 206210 181863 175328 150672 134807 117462 105309 94920.8 91424.4 89489.4 85193.7 83938.9 83872.6 81927.1 78235.8 70329.1 69981.7 65372.8 64660.7 63953.1 60059.4 62593.2 60300.6
threshold=47.207365036010749 16.977957725524906 -1.768505811691284 0.94896170496940624 9.7881135940551776 39.39666938781739 -14.190118312835692 -44.842424392700188 32.03534126281739 58.002243041992195 34.281690597534187 -17.981614112854 48.222505569458015 -45.172393798828118 44.955287933349616 43.81256294250489 -17.743203163146969 21.958979606628422 16.977957725524906 52.62483215332032 23.408958435058597 -31.432817459106442 -35.92608451843261 53.818143844604499 -61.05627250671386 -25.121109008789059 35.091266632080085 22.467396736145023 36.550209045410163 41.224117279052741
decision_type=2 2 2 2 2 2 2 2 2 2 2 2 2 2 2 2 2 2 2 2 2 2 2 2 2 2 2 2 2 2
left_child=1 2 7 5 8 10 14 26 15 19 18 -6 -8 -12 -7 -3 25 22 -2 -4 -5 -15 -9 -18 -11 -14 -1 29 -29 -23
right_child=3 4 9 20 11 6 12 17 -10 24 13 -13 16 21 -16 -17 23 -19 -20 -21 -22 27 -24 -25 -26 -27 -28 28 -30 -31
leaf_value=-1.3279700316142824 6.5905713280042013 -3.0869629497700073 1.0537780491650943 0.15791581682860853 -1.4110727867959389 -0.88025943522867944 0.25717345271647596 3.4551526835986546 -4.2617796604875204 0.74836500189392963 1.1621043733286314 1.7766990694195728 0.16763382204647723 1.1198497581070868 0.82590706521212798 -1.3239747216966418 2.5445109018638954 -0.66754559027708749 2.7820949637371566 2.7552019120490812 -1.8783639326914034 2.9920592987211423 0.26373997155538537 4.9510924829122347 -1.1535904168568809 2.0059016115056019 -2.6850381649829247 2.9700366923442254 5.4877179232049498 1.000527134324823
leaf_weight=210 39 402 355 188 145 115 96 21 345 74 107 43 58 58 280 90 134 481 23 91 67 400 97 39 116 273 148 52 47 42
leaf_count=210 39 402 355 188 145 115 96 21 345 74 107 43 58 58 280 90 134 481 23 91 67 400 97 39 116 273 148 52 47 42
internal_value=-4.62355e-09 -1.26489 -0.221488 1.64097 -2.88648 1.93286 1.25237 -0.939611 -3.38164 0.859083 2.81449 -0.681955 1.86013 2.60695 0.329175 -2.76447 2.16546 -0.372201 5.17775 1.40093 -0.377107 2.86504 0.831703 3.08704 -0.412829 1.68379 -1.88899 3.05215 4.1653 2.80282
internal_weight=4636 2618 1593 2018 1025 1763 995 957 837 636 768 188 600 706 395 492 504 599 62 446 255 599 118 173 190 331 358 541 99 442
internal_count=4636 2618 1593 2018 1025 1763 995 957 837 636 768 188 600 706 395 492 504 599 62 446 255 599 118 173 190 331 358 541 99 442
is_linear=0
shrinkage=0.05


Tree=2
num_leaves=31
num_cat=0
split_feature=24 44 38 60 66 38 23 28 22 36 30 29 44 44 12 9 6 64 43 32 20 17 8 44 28 49 38 40 30 19
split_gain=3.47989e+06 1.81862e+06 615260 308324 289239 277602 275639 220383 193202 149066 138682 128723 116712 106518 105976 98018.9 91829.4 90198.3 88185.3 81219 86239.5 70140.2 66673.1 66486.5 65271.6 78423.7 61854.9 60722.8 59502.1 57506.3
threshold=48.645671844482429 23.408958435058597 -17.10858058929443 -45.563619613647454 0.94896170496940624 20.129104614257816 47.722223281860359 55.829818725585945 -14.190118312835692 15.703346729278566 48.355720520019538 27.833052635192875 11.380590915679933 32.03534126281739 -33.906352996826165 39.132183074951179 7.5608320236206064 21.500000000000004 -41.833333969116204 39.752204895019538 48.268568038940437 -30.677602767944332 46.806991577148445 10.887275218963625 41.94427680969239 -44.961730957031243 -28.447813034057614 -32.575702667236321 42.498907089233406 -50.00224304199218
decision_type=2 2 2 2 2 2 2 2 2 2 2 2 2 2 2 2 2 2 2 2 2 2 2 2 2 2 2 2 2 2
left_child=1 2 3 27 6 13 8 10 14 -5 15 16 19 26 29 24 -8 -11 -18 20 -10 -21 -13 -6 25 -4 -3 -1 -9 -2
right_child=4 5 7 9 23 -7 11 28 12 17 -12 22 -14 -15 -16 -17 18 -19 -20 21 -22 -23 -24 -25 -26 -27 -28 -29 -30 -31
leaf_value=-1.9409390440471155 3.7403310339038187 -3.2982189810161957 0.81555453685292023 1.9519002015130562 0.92493055287334658 -0.52518040406076538 6.6977559642914022 -1.2237069885454961 1.2013614841424096 -1.581588872125963 2.1967698611892188 0.26532619733076829 0.17300304650018614 -3.9902368942144757 -0.022022235006093981 -1.7221465599536896 6.3129708494458887 -0.31083723469616076 2.3890144224961598 1.9252629894018174 2.6706955689737306 5.618278601765633 2.9649843311309816 -0.96670048025747146 0.53114487023516144 3.7036534072831273 -1.9124602602410865 -3.4865007047299983 0.076750573329627522 1.3005984377017354
leaf_weight=295 26 209 57 57 90 95 39 134 134 205 208 26 60 370 175 40 21 438 45 20 392 36 190 96 330 40 131 81 256 340
leaf_count=295 26 209 57 57 90 95 39 134 134 205 208 26 60 370 175 40 21 438 45 20 392 36 190 96 330 40 131 81 256 340
internal_value=-5.29567e-09 -1.03755 -0.275793 -1.11905 1.80865 -3.06353 2.03868 0.576173 1.68608 -0.498734 1.12289 3.33812 2.27265 -3.40317 0.990015 0.644592 4.7742 -0.715976 3.63755 2.4891 2.29638 4.29934 2.64003 -0.0513951 0.866301 2.00652 -2.76429 -2.27389 -0.370073 1.47391
internal_weight=4636 2946 2141 1076 1690 805 1504 1065 1183 700 675 321 642 710 541 467 105 643 66 582 526 56 216 186 427 97 340 376 390 366
internal_count=4636 2946 2141 1076 1690 805 1504 1065 1183 700 675 321 642 710 541 467 105 643 66 582 526 56 216 186 427 97 340 376 390 366
is_linear=0
shrinkage=0.05


Tree=3
num_leaves=31
num_cat=0
split_feature=24 44 30 66 38 28 20 22 20 48 37 0 59 44 53 24 19 9 20 60 54 3 44 40 44 44 62 30 52 12
split_gain=3.15021e+06 1.45521e+06 412162 388130 373204 353798 204045 184745 149995 127775 121795 120311 112731 98952 97382.9 91970.2 91453 149304 81467 79685.9 79325.9 76527.7 74529.4 72094.4 70843.9 70244.6 81426.3 68831.8 60714.9 59742
threshold=47.207365036010749 16.977957725524906 42.000120162963874 0.94896170496940624 -17.10858058929443 39.39666938781739 51.195936203002937 -14.190118312835692 30.889325141906742 34.281690597534187 -25.983619689941403 -29.902286529541012 -0.77751436829566944 11.380590915679933 53.022428512573249 53.931610107421882 -44.583496093749993 -32.611112594604485 44.955287933349616 -51.582265853881829 31.571578979492191 7.0679180622100839 16.977957725524906 -33.21655082702636 29.528487205505375 10.887275218963625 -32.736080169677727 52.62483215332032 -32.571121215820305 -51.994670867919915
decision_type=2 2 2 2 2 2 2 2 2 2 2 2 2 2 2 2 2 2 2 2 2 2 2 2 2 2 2 2 2 2
left_child=1 2 6 5 10 9 11 18 -4 22 20 14 24 15 23 -9 17 -11 -7 -13 -3 -8 -2 -1 -6 26 -5 28 -10 -18
right_child=3 4 8 25 12 7 21 13 27 16 -12 19 -14 -15 -16 -17 29 -19 -20 -21 -22 -23 -24 -25 -26 -27 -28 -29 -30 -31
leaf_value=1.6089900116766653 6.0620610151535423 -2.9533161257838345 -0.52128565512401492 2.9151789329670095 -0.81139211387582177 -0.83417320035074072 2.2367200919560024 1.6768495472981451 1.4243831452970603 7.1921802861349917 -3.7792304550383835 -2.7951768757222775 2.4927767133712773 -0.22992164940863358 3.2143438971560934 3.8521548165215389 0.95321226653842528 2.7742041595275819 0.7464616111037321 -1.2073486176133157 -1.1253004419950792 0.006954275980228331 2.473391828329667 -1.2937980121028598 -2.4772414093114894 -1.1917081960807405 -0.16651455645377822 2.5239680363581734 0.01911349780857563 2.2759208022967026
leaf_weight=31 39 222 152 27 183 115 56 485 245 21 421 91 20 61 23 54 112 214 280 600 81 123 23 69 98 124 104 91 112 359
leaf_count=31 39 222 152 27 183 115 56 485 245 21 421 91 20 61 23 54 112 214 280 600 81 123 23 69 98 124 104 91 112 359
internal_value=4.69313e-09 -1.14431 -0.198721 1.48454 -2.61389 1.74826 -0.823889 1.12597 0.835934 2.55448 -3.22906 -1.15999 -1.13422 1.67877 0.280785 1.89478 2.36336 3.169 0.286277 -1.41645 -2.46464 0.704535 4.73078 -0.393934 -1.39236 -0.338743 0.468644 1.29642 0.983514 1.96139
internal_weight=4636 2618 1593 2018 1025 1763 993 995 600 768 724 814 301 600 123 539 706 235 395 691 303 179 62 100 281 255 131 448 357 471
internal_count=4636 2618 1593 2018 1025 1763 993 995 600 768 724 814 301 600 123 539 706 235 395 691 303 179 62 100 281 255 131 448 357 471
is_linear=0
shrinkage=0.05


Tree=4
num_leaves=31
num_cat=0
split_feature=24 44 38 60 9 38 66 28 43 36 30 44 57 63 49 29 9 20 44 44 25 9 6 38 20 44 24 29 60 6
split_gain=2.85559e+06 1.48782e+06 514776 259126 247953 235547 211414 186917 182948 125892 115976 102993 95648.2 106291 92926.8 91802.1 84657.1 79632.4 69571.7 68107.3 67813.7 65044.8 70012.7 62561.6 62211.6 61548.7 58352.8 57209.6 56817.6 60511.3
threshold=48.645671844482429 23.408958435058597 -17.10858058929443 -45.563619613647454 37.317363739013679 25.229287147521976 0.94896170496940624 55.829818725585945 -42.611112594604485 15.703346729278566 48.355720520019538 32.03534126281739 15.719033718109133 28.861201286315922 -34.761297225952141 33.036230087280281 39.132183074951179 31.497370719909672 15.463091373443605 5.2241320610046396 26.558619499206547 21.714930534362797 -22.307435035705563 -28.447813034057614 53.110029220581062 10.887275218963625 50.987037658691413 27.833052635192875 -38.991493225097649 -18.657379150390621
decision_type=2 2 2 2 2 2 2 2 2 2 2 2 2 2 2 2 2 2 2 2 2 2 2 2 2 2 2 2 2 2
left_child=1 2 3 -1 6 11 8 10 27 -5 16 23 13 19 15 21 -4 -11 20 28 -19 22 -14 -3 -15 -8 -26 -2 -10 -30
right_child=4 5 7 9 -6 -7 25 -9 12 17 -12 -13 14 24 -16 -17 -18 18 -20 -21 -22 -23 -24 -25 26 -27 -28 -29 29 -31
leaf_value=-2.0809134068443105 5.8484095689022189 -2.9787187337732774 0.80056099373437206 1.7985629159107543 -0.62409844944434889 -0.0009214443394115993 1.136808958467914 -0.34302921624209448 1.8065526670531225 -2.8429326809369604 2.0139520119410008 -3.60838194523987 5.7946158155151037 0.71908775743325359 5.0421074787154794 0.48737302055316312 -1.6049994215369225 1.2296326944690485 -1.7462092929713737 1.0485404217243195 -0.4997940897403399 1.8629188130744276 2.8443576644361022 -1.6297913633184891 0.97313143187099049 -0.7569102961321672 3.5807960799554501 3.2238984438989848 5.2243679588724827 2.6966831229338353
leaf_weight=376 33 209 427 57 113 70 82 390 152 39 208 380 23 359 32 63 40 65 96 110 443 173 160 146 45 90 41 56 29 129
leaf_count=376 33 209 427 57 113 70 82 390 152 39 208 380 23 359 32 63 40 65 96 110 443 173 160 146 45 90 41 56 29 129
internal_value=4.11122e-09 -0.939881 -0.250882 -1.02221 1.6384 -2.77236 1.80052 0.528413 2.00307 -0.453536 1.03191 -3.03631 1.8547 1.5469 2.44503 2.24669 0.594517 -0.653177 -0.511786 2.11741 -0.278509 2.55803 3.21516 -2.42395 1.00844 0.145909 2.21632 4.19703 2.49669 3.16063
internal_weight=4636 2946 2141 1076 1690 805 1577 1065 1405 700 675 735 1316 865 451 419 467 643 604 420 508 356 183 355 445 172 86 89 310 158
internal_count=4636 2946 2141 1076 1690 805 1577 1065 1405 700 675 735 1316 865 451 419 467 643 604 420 508 356 183 355 445 172 86 89 310 158
is_linear=0
shrinkage=0.05


Tree=5
num_leaves=31
num_cat=0
split_feature=24 44 9 38 38 66 28 28 44 9 59 24 40 43 44 29 54 28 20 20 24 17 20 29 17 44 1 6 48 9
split_gain=2.58373e+06 1.13035e+06 378600 334240 329506 259275 232000 127080 124886 120466 114997 112410 122947 107549 87841 84578.9 89661.1 83554.9 81572.1 67134 66134.1 64682.3 62796.5 60434.9 59365.3 57876.4 63659.5 73054 68625.3 59375.4
threshold=46.565881729125984 16.187532424926761 37.317363739013679 -1.768505811691284 9.7881135940551776 0.94896170496940624 39.719326019287116 56.890859603881843 29.528487205505375 33.910497665405281 -12.108423233032225 50.479681015014656 -59.997756958007805 -40.833333969116204 10.887275218963625 40.405851364135749 53.75212478637696 53.537040710449226 52.867046356201179 44.020053863525398 43.81256294250489 -12.244595527648924 30.889325141906742 27.833052635192875 -25.29406642913818 7.2508010864257821 -15.773779869079588 -8.3677697181701642 47.151971817016609 -29.277777671813961
decision_type=2 2 2 2 2 2 2 2 2 2 2 2 2 2 2 2 2 2 2 2 2 2 2 2 2 2 2 2 2 2
left_child=1 3 5 9 8 6 13 -5 20 17 -6 12 -8 23 24 16 25 -1 -13 -11 -3 -20 -19 -2 -7 26 -15 28 -28 -27
right_child=2 4 -4 7 10 14 11 -9 -10 19 -12 18 -14 15 -16 -17 -18 22 21 -21 -22 -23 -24 -25 -26 29 27 -29 -30 -31
leaf_value=0.21874721053586133 5.1100859206453286 -2.4683808026038552 -0.9155335226317467 1.2577122046988878 -0.95846345685422429 -0.41965087056159978 2.7842912872632346 -0.26650208412787657 -3.3977024425732361 -2.4074325377479298 2.6268172665284233 1.3388768648893774 0.37444333406476377 1.7978253669407764 -1.0012059862740705 0.6913667885253304 4.8749179132282734 -2.2287104856026803 2.1288890649632708 -0.79598762302008352 -0.83349767422676091 4.7227426585029155 -0.59269794237288986 2.8356412866339089 1.8294813721322676 2.6255369353901461 5.8369621452532314 2.4694343991845633 2.2754322063355219 0.5410770078820567
leaf_weight=269 46 353 181 382 160 50 60 213 417 151 26 316 449 181 122 95 32 76 82 113 75 34 257 80 71 54 38 139 21 93
leaf_count=269 46 353 181 382 160 50 60 213 417 151 26 316 449 181 122 95 32 76 82 113 75 34 257 80 71 54 38 139 21 93
internal_value=3.71953e-09 -1.09486 1.27257 -0.200308 -2.36251 1.47433 1.69032 0.712069 -2.78188 -0.827172 -0.457295 1.16197 0.658512 2.32855 -0.0544712 2.07048 2.30527 -0.436648 1.75516 -1.71769 -2.18189 2.88916 -0.966082 3.66599 0.900088 2.14895 2.47558 3.09515 4.5693 1.3068
internal_weight=4636 2492 2144 1461 1031 1963 1720 595 845 866 186 941 509 779 243 653 558 602 432 264 428 116 333 126 121 526 379 198 59 147
internal_count=4636 2492 2144 1461 1031 1963 1720 595 845 866 186 941 509 779 243 653 558 602 432 264 428 116 333 126 121 526 379 198 59 147
is_linear=0
shrinkage=0.05


Tree=6
num_leaves=31
num_cat=0
split_feature=24 44 38 60 9 38 66 28 23 36 22 44 30 29 58 30 6 60 9 52 43 20 17 25 4 8 6 49 50 20
split_gain=2.33895e+06 1.21962e+06 427763 217720 200933 195138 174278 157915 155639 107510 97024.1 111521 96552.2 95380.4 90252.8 85266.5 79180 69648.4 69026.6 68414.5 66773.9 57067.8 56937.9 59373.1 56643.7 55218.1 54862.9 54720.2 54522.7 66914.1
threshold=48.645671844482429 23.408958435058597 -17.10858058929443 -45.563619613647454 38.496059417724616 25.229287147521976 0.94896170496940624 53.26178169250489 47.722223281860359 15.703346729278566 -3.8306282758712764 7.7855045795440683 45.972967147827156 27.833052635192875 31.309823036193851 51.74992752075196 7.5608320236206064 -38.311882019042962 37.698781967163093 -34.01690483093261 -41.833333969116204 26.237945556640629 -26.859588623046871 23.196040153503422 -37.309816360473626 46.806991577148445 16.627061843872074 -48.638957977294915 -36.923328399658196 52.65654373168946
decision_type=2 2 2 2 2 2 2 2 2 2 2 2 2 2 2 2 2 2 2 2 2 2 2 2 2 2 2 2 2 2
left_child=1 2 3 -1 6 14 8 12 10 -5 28 17 18 16 21 27 -10 26 -4 22 -18 -3 -11 -24 -17 -15 -12 -9 -2 -30
right_child=4 5 7 9 -6 -7 -8 15 13 19 11 -13 -14 25 -16 24 20 -19 -20 -21 -22 -23 23 -25 -26 -27 -28 -29 29 -31
leaf_value=-1.9003668405908218 2.7290400152621062 -3.1776403980855723 0.89519681761400749 1.6725316893113289 -0.88628620763035382 0.01280383244888591 0.11409421690108104 -0.89083513993096164 5.7819419573514894 -0.76874425567314031 2.0746705982519522 -0.093332269285539435 2.0303214832168557 -0.0024137808726384089 -3.4343634988741365 0.50093284287351247 5.268387341499329 3.009348432783117 -1.1729248063044346 -1.2355873895720357 1.8538698040445647 -1.9347033872200659 3.0160058808326724 0.13682698502766286 3.4864556645353639 2.4544098984959879 0.16220393631193375 0.17925591369929872 0.62410096015978178 1.9088285405911618
leaf_weight=376 46 131 285 57 85 70 174 235 39 200 225 56 184 26 291 47 21 188 47 252 45 313 20 171 24 190 45 243 416 134
leaf_count=376 46 131 285 57 85 70 174 235 39 200 225 56 184 26 291 47 21 188 47 252 45 313 20 171 24 190 45 243 416 134
internal_value=-3.3955e-09 -0.850619 -0.226805 -0.929928 1.4828 -2.50973 1.60826 0.483582 1.78994 -0.408664 1.50953 2.0129 1.11159 2.7596 -2.74998 -0.106682 3.99577 2.27043 0.602421 -0.593156 2.94031 -2.30143 -0.179108 0.438312 1.51012 2.15868 1.75593 -0.346835 1.07541 0.937107
internal_weight=4636 2946 2141 1076 1690 805 1605 1065 1431 700 1110 514 516 321 735 549 105 458 332 643 66 444 391 191 71 216 270 478 596 550
internal_count=4636 2946 2141 1076 1690 805 1605 1065 1431 700 1110 514 516 321 735 549 105 458 332 643 66 444 391 191 71 216 270 478 596 550
is_linear=0
shrinkage=0.05


Tree=7
num_leaves=31
num_cat=0
split_feature=24 30 9 44 24 47 28 44 64 48 60 20 27 44 30 10 36 25 41 31 0 51 43 51 52 38 60 9 63 47
split_gain=2.13138e+06 931572 421367 379514 294698 200572 161586 141575 135547 129931 109465 93900.4 82581.7 107387 93325.3 72579.3 69097.1 67117.3 67001.3 63968.7 60775.4 57781.2 57371.5 66335.3 55183.1 54118.9 57907.2 53756.7 50815.3 52052.5
threshold=44.663587570190437 42.000120162963874 37.317363739013679 19.918553352355961 49.301679611206062 -51.108297348022454 53.26178169250489 -6.9798624515533438 20.500000000000004 34.281690597534187 -44.842424392700188 26.464279174804691 36.61473464965821 11.751634597778322 46.077083587646491 37.114988327026374 -53.944444656372063 20.145333290100101 11.819023609161379 35.199640274047859 -34.813289642333977 18.92858982086182 23.04085731506348 -44.230783462524407 -36.769737243652337 24.401363372802738 1.0000000180025095e-35 44.797676086425788 29.348505973815922 -8.2870945930480939
decision_type=2 2 2 2 2 2 2 2 2 2 2 2 2 2 2 2 2 2 2 2 2 2 2 2 2 2 2 2 2 2
left_child=1 3 4 10 5 7 -3 22 -6 -10 -1 -5 13 14 16 -13 25 -12 -8 -7 21 -15 -2 -24 -19 26 -11 -4 29 -18
right_child=2 6 27 11 8 19 18 -9 9 12 17 15 -14 20 -16 -17 28 24 -20 -21 -22 -23 23 -25 -26 -27 -28 -29 -30 -31
leaf_value=-1.8525326978066845 1.5705250137852085 1.574472404980078 -0.66530261143471636 -3.4631839637621873 0.070152430584012035 5.7826127111911774 0.46576083623544345 -0.64567672784071872 4.0600679711606658 1.3478401247660319 2.2329617829620836 -2.6718201543324032 0.96941154439071497 3.4162629042093351 5.1874548859321159 -1.3453922288429818 2.1938663361830701 -0.060815408210391587 -0.7596465870563951 2.0802374768470013 0.38193608003170931 0.83488244359260022 2.3684303283691408 0.22182863495808128 -1.1861892162916365 5.8146392548084265 4.8211679732799535 -2.7329653733485455 1.4176277449554895 4.7115911559625108
leaf_weight=278 155 205 209 246 123 20 233 268 61 30 20 335 296 41 26 149 307 184 214 28 146 46 40 359 267 20 20 37 251 22
leaf_count=278 155 205 209 246 123 20 233 268 61 30 20 335 296 41 26 149 307 184 214 28 146 46 40 359 267 20 20 37 251 22
internal_value=-6.99634e-10 -1.16236 0.988818 -1.85647 1.20281 0.481221 0.412155 0.297766 1.65478 1.80874 -1.06575 -2.66776 1.69477 1.93097 2.25003 -2.26348 2.13254 -0.601366 -0.1209 3.62289 1.0053 2.0514 0.754161 0.437027 -0.727057 3.61645 2.73717 -0.976293 1.95344 2.36222
internal_weight=4636 2131 2505 1479 2259 870 652 822 1389 1266 749 730 1205 909 676 484 650 471 447 48 233 87 554 399 451 70 50 246 580 329
internal_count=4636 2131 2505 1479 2259 870 652 822 1389 1266 749 730 1205 909 676 484 650 471 447 48 233 87 554 399 451 70 50 246 580 329
is_linear=0
shrinkage=0.05


Tree=8
num_leaves=31
num_cat=0
split_feature=24 30 28 44 9 44 28 44 57 24 9 36 60 44 0 10 51 20 50 50 26 20 40 15 44 51 16 37 22 28
split_gain=1.92594e+06 851403 391235 318319 255388 182647 152356 150683 115543 98954.4 106030 96593.4 91137.3 85772.2 91311.7 114872 85177.1 80986.2 67907.2 63266.7 59524.6 58463.1 58340.5 58284.7 54599.2 53374.2 52895 49932.2 49669.5 51467.3
threshold=44.285480499267585 42.000120162963874 40.654958724975593 19.918553352355961 37.317363739013679 5.2241320610046396 53.26178169250489 24.572281837463382 8.3518037796020526 50.927024841308601 21.506033897399906 -58.388887405395501 -44.842424392700188 11.751634597778322 -34.438392639160149 27.226552009582523 -44.230783462524407 26.464279174804691 -10.437557697296141 -2.1492440700531001 -57.926584243774407 32.040597915649421 -53.706806182861321 -44.229770660400384 -21.886445045471188 -52.055076599121087 -39.033679962158196 -50.54551696777343 -22.700542449951168 41.498973846435554
decision_type=2 2 2 2 2 2 2 2 2 2 2 2 2 2 2 2 2 2 2 2 2 2 2 2 2 2 2 2 2 2
left_child=1 3 7 12 5 9 -3 8 20 16 19 -10 -1 14 15 -13 24 -5 -19 -11 -2 25 -7 -23 -4 -8 -22 -14 -18 -30
right_child=2 6 4 17 -6 22 21 -9 11 10 -12 13 27 -15 -16 -17 28 18 -20 -21 26 23 -24 -25 -26 -27 -28 -29 29 -31
leaf_value=-1.7927523716948088 -0.3623894218440083 1.5260488836728037 4.1141891727080715 -3.2885055014065339 -1.2054878205412403 1.4378663931041957 1.4422423578798771 -0.18480755263566973 5.6008530189593637 1.9855622020634738 1.2325154299296723 6.8417207594271066 0.64581115123900501 1.2814783682738702 2.0533512365997288 2.9948571821053824 -0.41621340398435241 -1.1410654644171396 -2.5164235938466 5.1581248235702519 -0.029352796000118059 2.6216593279288367 -0.84972885874169024 0.11650772927680873 1.1406440195284391 -1.0713138719173996 1.7122966822083843 -0.84382289561230372 2.8304616093062442 0.54580336071820434
leaf_weight=266 44 200 26 245 212 32 24 100 24 33 289 27 66 127 133 69 135 120 356 30 48 26 216 217 38 176 475 381 26 475
leaf_count=266 44 200 26 245 212 32 24 100 24 33 289 27 66 127 133 69 135 120 356 30 48 26 216 217 38 176 475 381 26 475
internal_value=1.28617e-09 -1.13119 0.918127 -1.80907 0.403667 0.666083 0.380587 1.66107 1.85599 0.953838 1.63768 2.53062 -1.05995 2.32364 2.9016 4.07679 0.609962 -2.54987 -2.16969 3.49631 1.40386 -0.136551 -0.554555 0.384549 2.34865 -0.769687 1.55245 -0.623877 0.435 0.664368
internal_weight=4636 2077 2559 1434 1512 1300 643 1047 947 1052 352 380 713 356 229 96 700 721 476 63 567 443 248 243 64 200 523 447 636 501
internal_count=4636 2077 2559 1434 1512 1300 643 1047 947 1052 352 380 713 356 229 96 700 721 476 63 567 443 248 243 64 200 523 447 636 501
is_linear=0
shrinkage=0.05


Tree=9
num_leaves=31
num_cat=0
split_feature=24 44 38 57 35 38 36 1 54 30 64 20 29 49 13 20 38 63 24 44 31 14 0 49 47 20 44 44 11 17
split_gain=1.73839e+06 915434 349458 156920 156521 143247 135619 127040 123876 116307 108836 100041 95479.6 88074.2 87822.3 82225.3 74797.3 67920.7 66639.4 65685.4 64921.8 64355.2 65811.5 60921.7 57295.8 56966.5 56956 55740 55084.6 47632.9
threshold=48.645671844482429 24.831427574157718 -24.273063659667965 23.712218284606937 33.492168426513679 25.229287147521976 18.054184913635257 -35.993249893188469 45.321763992309577 51.74992752075196 20.500000000000004 37.619724273681648 33.036230087280281 -49.15032768249511 -33.445844650268548 30.125468254089359 -25.00313568115234 25.559511184692386 52.000474929809577 -22.316826820373532 39.110881805419929 -60.379678726196282 -36.577768325805657 -56.392702102661126 -45.207544326782219 49.215948104858406 17.576293945312504 -26.587210655212399 16.77613735198975 -18.713403701782223
decision_type=2 2 2 2 2 2 2 2 2 2 2 2 2 2 2 2 2 2 2 2 2 2 2 2 2 2 2 2 2 2
left_child=1 2 6 7 9 23 -1 -2 12 13 -9 -8 14 24 21 -15 19 26 -10 20 -12 -5 -23 -3 25 -4 28 -13 -18 -19
right_child=3 5 4 8 -6 -7 11 10 18 -11 16 27 -14 15 -16 -17 17 29 -20 -21 -22 22 -24 -25 -26 -27 -28 -29 -30 -31
leaf_value=1.5231558624578982 -0.28043954258615322 -3.1313169473436027 -1.0009050092556782 5.366152878602346 -0.98677234689039839 0.068864363920493207 -2.0090549662827502 -0.19430956542491915 2.3407802899678547 1.7715498893491686 0.22424727536060593 0.35765801239972828 -0.10776689361642909 -0.61129569931463767 1.2123923103083074 0.88575280006920942 2.2252647889392887 0.70951590670757303 6.0391632425374002 -0.3035995522262277 3.0074747073650361 4.8019334864157903 1.9921351127397449 -2.1270024590308849 2.180285342605341 0.39542754861925333 0.80561858747318826 -1.0258763113230334 4.9461631035804752 1.7221145892752845
leaf_weight=49 165 226 210 24 210 61 252 124 21 155 44 87 54 110 127 552 266 246 29 111 40 26 105 455 21 112 68 446 20 220
leaf_count=49 165 226 210 24 210 61 252 124 21 155 44 87 54 110 127 552 266 246 29 111 40 26 105 455 21 112 68 446 20 220
internal_value=1.62389e-09 -0.73333 -0.221927 1.27834 0.269303 -2.25238 -1.02886 1.0162 2.16388 0.496696 1.20404 -1.18816 1.81835 0.300076 2.18718 0.636999 1.37488 1.58419 4.48584 0.494699 1.54959 2.98588 2.54981 -2.4603 -0.350193 -0.515224 2.10629 -0.800046 2.41554 1.18757
internal_weight=4636 2946 2204 1690 1370 742 834 1304 386 1160 1139 785 336 1005 282 662 1015 820 50 195 84 155 131 681 343 322 354 533 286 466
internal_count=4636 2946 2204 1690 1370 742 834 1304 386 1160 1139 785 336 1005 282 662 1015 820 50 195 84 155 131 681 343 322 354 533 286 466
is_linear=0
shrinkage=0.05


Tree=10
num_leaves=31
num_cat=0
split_feature=24 30 28 44 9 44 28 64 0 20 57 24 17 31 55 43 44 40 61 64 19 22 36 47 6 7 60 52 41 58
split_gain=1.57678e+06 709716 326926 249564 220395 155733 153916 130700 105254 101044 92674.2 85497.9 72035.1 66855 66724.6 64109 70245.5 59789.5 59499.8 57780.1 60775.3 57375.7 69829.2 82858.8 68284.6 59772.9 59759.5 57030.3 55729.3 53180.7
threshold=44.285480499267585 40.887432098388679 40.654958724975593 29.528487205505375 37.317363739013679 10.887275218963625 53.26178169250489 20.500000000000004 -35.019853591918938 37.003705978393562 15.719033718109133 51.224351882934577 -20.323247909545895 38.67640686035157 60.636436462402351 -43.611112594604485 16.684972763061527 -53.515096664428704 33.813287734985359 21.500000000000004 1.0000000180025095e-35 3.5399186611175542 -53.055555343627923 -62.189201354980462 -12.577338695526121 57.224987030029304 -38.991493225097649 -42.550804138183587 11.819023609161379 -37.958448410034173
decision_type=2 2 2 2 2 2 2 2 2 2 2 2 2 2 2 2 2 2 2 2 2 2 2 2 2 2 2 2 2 2
left_child=1 3 7 9 5 10 -3 13 -9 -1 11 -4 -12 -2 -13 -10 21 -7 27 -11 -21 22 23 -17 26 -24 -23 -14 29 -8
right_child=2 6 4 -5 -6 17 28 8 15 19 12 14 18 -15 -16 16 -18 -19 -20 20 -22 24 25 -25 -26 -27 -28 -29 -30 -31
leaf_value=-1.858759847176237 1.726996570490301 1.4272615717590282 0.17474793912683217 -2.6875402970332432 -1.1343909654098581 1.4339621034161798 0.99778179757630658 2.4753200592418545 3.4499797938501136 -1.4012858610327652 0.61981603300419497 3.6229903728797517 4.1750418477936799 -0.72973333519366057 1.0150699263098855 0.92175790513003319 0.097984692638954235 -1.0182429216695073 0.54864281056062236 -0.60698333225547219 1.7149465751263404 2.0203143697518571 -1.3433815820408721 4.9165021138191225 1.3648743151741869 1.0875452709666158 5.3492434763482644 1.9925733329028104 -0.74138089170789023 -0.51735078850213223
leaf_weight=386 40 209 525 421 212 29 134 307 34 246 152 29 38 90 159 27 113 174 53 310 31 26 28 25 68 261 28 141 238 102
leaf_count=386 40 209 525 421 212 29 134 307 34 246 152 29 38 90 159 27 113 174 53 310 31 26 28 25 68 261 28 141 238 102
internal_value=1.53073e-09 -1.02353 0.830743 -1.67048 0.360463 0.604239 0.296899 1.50989 1.72023 -1.23042 0.839654 0.502392 1.46587 0.0261836 1.41736 1.3402 1.21567 -0.667928 2.02018 -0.817236 -0.395899 1.48845 1.15553 2.84231 2.419 0.852023 3.74643 2.45589 -0.20151 0.342936
internal_weight=4636 2077 2559 1394 1512 1300 683 1047 917 973 1097 713 384 130 188 610 576 203 232 587 341 463 341 52 122 289 54 179 474 236
internal_count=4636 2077 2559 1394 1512 1300 683 1047 917 973 1097 713 384 130 188 610 576 203 232 587 341 463 341 52 122 289 54 179 474 236
is_linear=0
shrinkage=0.05


Tree=11
num_leaves=31
num_cat=0
split_feature=24 44 38 38 60 57 54 1 35 64 48 44 59 43 9 25 1 38 17 38 37 44 63 31 20 40 30 32 52 44
split_gain=1.43e+06 762590 267395 181542 145671 132050 110910 107920 94232.8 90405.8 86808.2 119002 80996.5 74954.6 72825 78258.7 71984.5 67177.1 63770 63437.4 63429.4 58949.4 58924 58754.3 54925.2 53990.2 53492.4 52485.2 63683.4 47374.9
threshold=48.645671844482429 19.460027694702152 -2.9886751174926753 -17.10858058929443 -45.662990570068352 23.712218284606937 40.993509292602546 -35.993249893188469 20.8648796081543 20.500000000000004 41.613609313964851 5.2241320610046396 -0.77751436829566944 25.98767185211182 -18.423933029174801 45.645233154296882 -36.362886428833001 -33.237182617187493 31.905228614807132 -25.00313568115234 -23.71684646606445 -22.316826820373532 26.076205253601078 39.110881805419929 31.497370719909672 -69.973186492919908 -20.939734458923336 33.704767227172859 -38.655757904052727 17.576293945312504
decision_type=2 2 2 2 2 2 2 2 2 2 2 2 2 2 2 2 2 2 2 2 2 2 2 2 2 2 2 2 2 2
left_child=1 2 4 20 27 7 10 -2 -4 -9 11 18 -5 16 -8 -16 -6 -18 -7 21 -3 23 29 -11 -15 -10 -26 -1 -29 -21
right_child=5 3 8 12 13 6 14 9 25 19 -12 -13 -14 24 15 -17 17 -19 -20 22 -22 -23 -24 -25 26 -27 -28 28 -30 -31
leaf_value=-1.6535739266814162 -0.27614283913012705 -1.7188861903666504 1.0828267364670789 -0.99672841888165831 3.0469436086141148 2.7275734144449237 5.7178701987972964 -0.18239024077211657 2.3175214737653733 0.17570911693302069 0.98116885953295607 1.0897958568904711 2.1565502762794497 -2.0400568136085684 0.68008206859231002 4.3859986609426036 -1.4794182614846665 0.71660596430301671 6.6285787560723053 2.1843334789669155 -2.6807310651750011 -0.31907021088844489 1.0599776487234398 2.8234358436614277 -1.7452532475193341 -0.25871898009334465 -0.16120536235206034 2.25016106903553 -1.0979085972114484 0.72174490505610323
leaf_weight=307 165 315 466 274 26 20 27 124 22 44 214 46 22 52 28 29 44 167 22 298 376 111 454 40 60 269 477 20 49 68
leaf_count=307 165 315 466 274 26 20 27 124 22 44 214 46 22 52 28 29 44 167 22 298 376 111 454 40 60 269 477 20 49 68
internal_value=1.18407e-09 -0.665109 -0.0941031 -1.79844 -0.557683 1.15942 1.97176 0.918951 0.641991 1.09208 1.52477 2.84671 -0.762363 -0.186312 3.57879 2.56555 0.564554 0.258667 4.77096 1.24778 -2.24226 0.437189 1.44054 1.43653 -0.488443 -0.0639517 -0.338194 -1.37351 -0.127454 1.9126
internal_weight=4636 2946 1959 987 1202 1690 386 1304 757 1139 302 88 296 826 84 57 237 211 42 1015 691 195 820 84 589 291 537 376 69 366
internal_count=4636 2946 1959 987 1202 1690 386 1304 757 1139 302 88 296 826 84 57 237 211 42 1015 691 195 820 84 589 291 537 376 69 366
is_linear=0
shrinkage=0.05


Tree=12
num_leaves=31
num_cat=0
split_feature=24 30 9 44 24 56 28 43 54 20 44 44 42 0 17 38 31 41 59 29 32 20 51 17 54 52 19 57 44 55
split_gain=1.29568e+06 590726 279052 220103 194593 128306 108161 98060.9 97086 91438.5 81353.4 77879.7 77213.9 66201.6 65087.6 63006 60346 57312.5 56860.8 55477.4 64262.3 54278.2 52421.5 50543 50051.3 49467.3 55306.1 47539.4 46303.8 64493.7
threshold=44.285480499267585 42.000120162963874 37.00392150878907 29.528487205505375 50.987037658691413 58.000823974609382 52.076135635375984 -42.611112594604485 22.483036994934086 52.867046356201179 25.246093750000004 10.208784580230715 -43.83183288574218 -35.550861358642571 -24.034650802612301 -23.718915939331051 45.46989822387696 18.184869766235355 -18.429110527038571 40.405851364135749 36.551372528076179 44.293725967407234 13.30748510360718 -25.668208122253414 28.742230415344242 -37.154317855834954 -14.47134494781494 27.849308967590336 5.2241320610046396 64.537654876708999
decision_type=2 2 2 2 2 2 2 2 2 2 2 2 2 2 2 2 2 2 2 2 2 2 2 2 2 2 2 2 2 2
left_child=1 3 4 8 5 10 -3 -6 -1 13 24 23 15 19 -11 -10 -16 18 -8 20 22 -4 -9 -7 -2 26 -14 -24 29 -15
right_child=2 6 21 -5 7 11 17 9 12 14 -12 -13 25 28 16 -17 -18 -19 -20 -21 -22 -23 27 -25 -26 -27 -28 -29 -30 -31
leaf_value=-1.9635927840343808 0.82719703703409153 1.417476944325591 -1.4989764881226444 -2.4469289939894399 3.1041161508445283 -0.081950511894488751 -0.1277880237603248 4.2057415123496744 -1.8641579282416239 1.26682137105916 -1.1258524768492755 -0.78410536982718182 -0.013487619823879665 1.4951157035594675 3.9980337854744734 -0.39496072326545367 1.0407055585280709 -0.77119409352202306 1.3313308718180892 0.24146393761038781 4.9761451578140266 -0.091380672041990185 0.76478352290004092 0.78882257865921801 1.942564931276233 -0.75557382975239307 2.8168146169185642 3.0760761013254525 0.15507847764202068 -0.021929660223184096
leaf_weight=242 189 169 129 425 83 295 197 21 225 74 34 171 126 284 69 108 23 176 101 40 20 146 73 383 215 288 20 32 185 93
leaf_count=242 189 169 129 425 83 295 197 21 225 74 34 171 126 284 69 108 23 176 101 40 20 146 73 383 215 288 20 32 185 93
internal_value=1.41492e-09 -0.927819 0.75306 -1.49246 0.934234 0.52803 0.331436 1.45859 -1.09044 1.30916 1.22309 0.169448 -0.814941 1.07357 2.37076 -1.38766 3.2587 -0.0557806 0.366746 1.89121 2.3432 -0.751671 1.92527 0.409946 1.42077 -0.375503 0.374225 1.46918 0.802959 1.12088
internal_weight=4636 2077 2559 1434 2284 1287 643 997 1009 914 438 849 767 748 166 333 92 474 298 186 146 275 126 678 404 434 146 105 562 377
internal_count=4636 2077 2559 1434 2284 1287 643 997 1009 914 438 849 767 748 166 333 92 474 298 186 146 275 126 678 404 434 146 105 562 377
is_linear=0
shrinkage=0.05


Tree=13
num_leaves=31
num_cat=0
split_feature=24 44 38 38 20 66 9 29 55 49 49 59 20 17 28 9 14 35 55 28 12 8 1 3 2 43 33 34 30 47
split_gain=1.17321e+06 627568 226871 150509 134920 113052 110315 106646 100063 85297.7 84019.5 70124.1 69001.6 66751.2 61513.7 61245.9 60558.4 56781.6 55300.5 51750 51476.6 79642.4 60694.4 50410.9 49892.8 49708.4 55177 49624.1 49362.4 61461.2
threshold=48.645671844482429 19.460027694702152 5.4726727008819589 -17.10858058929443 45.617547988891609 0.94896170496940624 25.1630973815918 27.833052635192875 59.855993270874031 -53.833116531372063 -42.601449966430657 -0.77751436829566944 48.268568038940437 -22.204122543334957 52.198184967041023 33.910497665405281 -44.391920089721673 14.398890972137453 60.000074386596687 41.72929763793946 -46.594949722290032 46.534002304077156 11.207929134368898 37.138248443603523 32.271223068237312 24.055950164794925 -20.110668182373043 38.235393524169929 39.205614089965827 -68.922721862792955
decision_type=2 2 2 2 2 2 2 2 2 2 2 2 2 2 2 2 2 2 2 2 2 2 2 2 2 2 2 2 2 2
left_child=1 2 4 17 15 6 7 8 10 -4 23 -5 -8 14 -11 -1 27 -3 -15 25 -10 -22 -23 -2 -20 26 -6 -9 29 -14
right_child=5 3 9 11 19 -7 12 16 20 13 -12 -13 28 18 -16 -17 -18 -19 24 -21 21 22 -24 -25 -26 -27 -28 -29 -30 -31
leaf_value=-0.59564460602245839 2.8119035780158912 -1.2986682741892965 -0.55006054998065035 -0.90524928370748992 0.57310697229639185 -0.11270454856016304 0.1000616953404035 -0.22988319389240922 -0.29973583999607295 1.1788108641533432 4.640856943563981 2.0287691831588748 1.3742115940463631 2.0947246036386189 -0.22515050790978203 -1.5719517897454001 2.1254685273224658 -2.3137874998048154 -0.30406219918152383 -0.16728039787516796 0.55168770601352057 1.9949778379463567 4.8092069225311285 0.43563056737184525 2.3679844570159911 -0.76139819175004964 2.9734965084837035 1.1485747551392107 3.1133877433579542 0.082130245608983174
leaf_weight=456 110 190 120 274 62 186 261 106 36 148 55 22 304 158 165 248 88 501 58 448 78 82 25 28 25 32 39 170 29 132
leaf_count=456 110 190 120 274 62 186 261 106 36 148 55 22 304 158 165 248 88 501 58 448 78 82 25 28 25 32 39 170 29 132
internal_value=-3.04693e-09 -0.60244 -0.0844451 -1.63056 -0.474136 1.05017 1.19398 1.60764 2.15655 0.658512 2.98836 -0.68718 0.750697 0.920297 0.438703 -0.939571 0.983328 -2.03467 1.54577 0.0898324 1.43013 1.76676 2.65251 2.32976 0.500771 0.955897 1.49999 0.619167 1.11589 0.983031
internal_weight=4636 2946 1959 987 1285 1690 1504 778 414 674 193 296 726 554 313 704 364 691 241 581 221 185 107 138 83 133 101 276 465 436
internal_count=4636 2946 1959 987 1285 1690 1504 778 414 674 193 296 726 554 313 704 364 691 241 581 221 185 107 138 83 133 101 276 465 436
is_linear=0
shrinkage=0.05


Tree=14
num_leaves=31
num_cat=0
split_feature=28 44 66 30 57 38 24 20 38 58 20 47 1 35 29 5 28 6 49 40 12 22 14 36 15 49 4 20 30 14
split_gain=1.06817e+06 518676 289405 172586 149850 133869 110415 89601.2 85079.2 84299.4 79673.2 77741.3 88965.8 66395.4 80189.9 66137 66123.6 67799.1 79305.4 64397 56119.8 66632.6 72386.1 60954.3 51971.5 48495.9 44655.3 43467.4 42591.6 49796.2
threshold=49.203989028930671 15.900898933410646 0.94896170496940624 41.45183181762696 7.4630219936370858 9.226567745208742 47.75019836425782 45.833831787109382 -30.812012672424313 21.228430747985843 30.889325141906742 -49.928197860717766 42.058256149291999 -56.611112594604485 33.738737106323249 -57.332838058471673 -27.499999999999996 0.77077302336692821 -41.699207305908196 -27.148934364318844 -53.80517387390136 7.6823279857635507 -44.391920089721673 -48.388887405395501 50.904813766479499 -50.419694900512688 36.001352310180671 48.113500595092781 12.484046936035158 -68.786884307861314
decision_type=2 2 2 2 2 2 2 2 2 2 2 2 2 2 2 2 2 2 2 2 2 2 2 2 2 2 2 2 2 2
left_child=2 3 4 7 6 19 25 -2 -4 13 -5 -10 -13 15 16 -6 17 -15 -19 -3 -8 22 -22 -24 28 -1 -26 -12 -18 -30
right_child=1 5 8 10 9 -7 20 -9 11 -11 27 12 -14 14 -16 -17 24 18 -20 -21 21 -23 23 -25 26 -27 -28 -29 29 -31
leaf_value=-1.4046235567247365 -1.0118619593167768 -1.5088893200581275 -1.9007679160100868 -0.47367867719393913 2.0408785959084828 -0.39181869839307631 -0.62763114604685044 0.019728526948647723 -0.44117755013884924 -0.6290681069943963 0.6593511941892225 4.1002637272531341 -0.39634574082764717 5.3272623103597887 0.26700455637205217 5.0716704986713559 0.48623041779630721 1.2102097632708375 4.8313507329849976 -2.4266129757870329 0.60104884800785685 1.8330603165674937 4.3373828306198119 0.68335736989974982 4.3151394691960565 0.18152464295923709 1.2440648436918855 2.2063615559362897 3.878927455486163 1.4590814293517973
leaf_weight=71 515 435 83 157 54 178 54 356 231 41 414 22 22 23 105 27 108 54 21 341 527 197 25 21 29 150 20 51 23 281
leaf_count=71 515 435 83 157 54 178 54 356 231 41 414 22 22 23 105 27 108 54 21 341 527 197 25 21 29 150 20 51 23 281
internal_value=1.56555e-09 -0.717835 0.802441 -0.135939 1.05665 -1.6285 0.664363 -0.590225 -0.497736 1.57821 0.500206 -0.0742757 1.85196 1.69968 1.53482 3.05114 1.77296 2.95242 2.22413 -1.91217 0.930532 1.03981 0.767082 2.66924 1.52224 -0.328052 3.06164 0.829023 1.33915 1.64216
internal_weight=4636 2447 2189 1493 1831 954 1045 871 358 786 622 275 44 745 664 81 559 98 75 776 824 770 573 46 461 221 49 465 412 304
internal_count=4636 2447 2189 1493 1831 954 1045 871 358 786 622 275 44 745 664 81 559 98 75 776 824 770 573 46 461 221 49 465 412 304
is_linear=0
shrinkage=0.05


Tree=15
num_leaves=31
num_cat=0
split_feature=24 30 9 38 44 44 47 44 45 20 41 38 24 7 6 28 60 0 26 58 22 5 40 20 20 40 15 28 11 9
split_gain=975007 437731 242404 171114 158263 113354 111018 96145.9 93020.3 89545.6 86977.9 72940.2 62268.4 59908.5 59140.4 84456.7 57075.7 51318.3 51133.9 48622.5 47249.9 45115 44360.7 43935.6 43314.7 42963.9 42752.1 42441 48242.2 41737.6
threshold=43.964027404785163 42.000120162963874 37.317363739013679 -25.121109008789059 29.528487205505375 -22.316826820373532 -53.258066177368157 18.310054779052738 51.21662902832032 30.889325141906742 -28.331208229064938 -28.638331413269039 49.301679611206062 57.840122222900398 -9.5302309989929181 39.922908782958991 -40.630849838256829 -31.885162353515621 -50.713504791259759 -41.669668197631829 -53.888889312744134 -63.002666473388665 -16.97468280792236 26.784414291381839 28.2768087387085 -60.753143310546868 -48.303955078124993 41.72929763793946 -24.55559158325195 46.115884780883796
decision_type=2 2 2 2 2 2 2 2 2 2 2 2 2 2 2 2 2 2 2 2 2 2 2 2 2 2 2 2 2 2
left_child=1 4 3 5 11 16 7 10 13 26 -5 23 25 -8 15 -14 -2 22 -9 -11 -7 -18 -13 -1 -19 -12 -3 28 -27 -4
right_child=2 9 29 6 -6 20 8 18 -10 19 12 17 14 -15 -16 -17 21 24 -20 -21 -22 -23 -24 -25 -26 27 -28 -29 -30 -31
leaf_value=-2.3363336890628661 -0.36498171482235198 1.0410783495633833 -0.56990943914627135 0.40338831333578756 -2.1448165054764088 1.5361756301556644 0.82929137199075065 -0.56765668339011344 4.8214190443356841 1.0683790905540114 2.2537831676277249 2.6431979547376221 3.9493071833561211 2.1952244587934735 1.2531462793955299 1.5876436387658668 0.69224943267028838 -1.8000864192417692 1.4053301542088754 -0.012641058765790043 -0.67793958521813247 2.6314828346846468 -0.57656802296638487 -1.1557063911447212 -0.42262698193487619 2.728320371272952 -0.99079586598713698 0.24967193416327485 0.37336567809635945 -2.5475579488277438
leaf_weight=97 50 31 241 427 422 26 143 165 24 268 44 23 58 183 330 109 61 70 41 170 329 59 20 420 309 43 157 242 44 30
leaf_count=97 50 31 241 427 422 26 143 165 24 268 44 23 58 183 330 109 61 70 41 170 329 59 20 420 309 43 157 242 44 30
internal_value=3.9977e-11 -0.837229 0.628001 0.789466 -1.34054 -0.0073637 1.01523 0.828467 1.81723 0.257021 0.987842 -0.979081 1.27469 1.59606 1.64115 2.40786 1.05433 -0.491317 -0.174975 0.648805 -0.515779 1.64571 1.14563 -1.37722 -0.677039 0.786415 -0.655753 0.590172 1.53731 -0.788837
internal_weight=4636 1987 2649 2378 1361 525 1853 1503 350 626 1297 939 870 326 497 167 170 422 206 438 355 120 43 517 379 373 188 329 87 271
internal_count=4636 1987 2649 2378 1361 525 1853 1503 350 626 1297 939 870 326 497 167 170 422 206 438 355 120 43 517 379 373 188 329 87 271
is_linear=0
shrinkage=0.05


Tree=16
num_leaves=31
num_cat=0
split_feature=28 40 66 38 57 20 49 17 24 58 38 47 1 36 35 5 44 14 7 44 61 48 53 52 20 63 31 14 36 28
split_gain=881691 440876 245129 206411 128426 105154 94960.2 102642 92858.1 71100.8 70996.6 66663.9 81015.7 60449.8 65289.5 60251.1 58841.9 65412.7 57166.5 52562.7 52089.6 54487.3 58477.4 50627 48234.6 44534.7 98980 43815.4 47255.1 41797
threshold=49.203989028930671 -27.637632369995114 0.94896170496940624 1.681451737880707 7.4630219936370858 29.997854232788089 -51.78893852233886 -21.807354927062985 47.75019836425782 21.228430747985843 -30.812012672424313 -49.928197860717766 42.500000000000007 -58.388887405395501 -56.611112594604485 -57.332838058471673 -20.831022262573239 -70.82167816162108 52.286518096923835 15.900898933410646 23.926015853881839 68.386596679687514 42.803977966308601 -42.486343383789055 42.598968505859382 50.675853729248054 36.895980834960945 -44.660993576049798 -51.388887405395501 41.156711578369148
decision_type=2 2 2 2 2 2 2 2 2 2 2 2 2 2 2 2 2 2 2 2 2 2 2 2 2 2 2 2 2 2
left_child=2 3 4 5 8 -2 -5 -8 -1 13 -4 -12 -13 -6 15 -15 17 -16 -9 -7 21 22 29 -10 -3 -20 -27 -25 -29 -19
right_child=1 24 10 6 9 19 7 18 23 -11 11 12 -14 14 16 -17 -18 20 25 -21 -22 -23 -24 27 -26 26 -28 28 -30 -31
leaf_value=-0.31026765108698501 -1.6594211420380927 -2.4585747990082822 -1.7492215661399335 -0.6885774073060803 4.0259984160463018 -0.2830930241446753 0.03419771566437585 -0.25947079930040573 1.3565061552842197 -0.58129752845298954 -0.420484743502749 3.6615643759568535 -0.64727500006556515 1.8483915636936825 3.9565321494825185 4.7411781739305567 0.85983089375643618 5.6980511140823369 1.2842837093339403 -1.1086096553869969 0.90092903282759451 0.6952804596440213 0.99173082388364353 0.37231763990824684 -1.3613229005567096 0.99220228780960218 5.3330744425455734 3.7845586204528807 0.85337512926621872 2.9209057951257344
leaf_weight=221 249 290 83 186 24 708 339 45 304 41 231 24 20 54 32 27 343 20 159 265 140 37 26 456 153 29 24 20 44 42
leaf_count=221 249 290 83 186 24 708 339 45 304 41 231 24 20 54 32 27 343 20 159 265 140 37 26 456 153 29 24 20 44 42
internal_value=-2.18286e-10 -0.652173 0.729039 -0.336625 0.962999 -0.742559 0.297711 0.605513 0.599833 1.44583 -0.467557 -0.080727 1.703 1.5574 1.47522 2.81265 1.30595 1.82117 1.35912 -0.507925 1.56332 2.3052 2.98209 0.843925 -2.07961 1.70268 2.95788 0.544263 1.76937 3.81676
internal_weight=4636 2447 2189 2004 1831 1222 782 596 1045 786 358 275 44 745 721 81 640 297 257 973 265 125 88 824 443 212 53 520 64 62
internal_count=4636 2447 2189 2004 1831 1222 782 596 1045 786 358 275 44 745 721 81 640 297 257 973 265 125 88 824 443 212 53 520 64 62
is_linear=0
shrinkage=0.05


Tree=17
num_leaves=31
num_cat=0
split_feature=44 28 38 57 49 35 58 20 36 35 54 47 44 14 24 59 61 31 44 63 28 9 14 59 20 15 40 26 58 63
split_gain=806225 466999 197194 148110 99523.7 93793.3 80299.4 77058.2 67297.6 64816.3 64358.6 59247.2 63004.8 61641 55815.9 54163.4 51356.3 51151.6 66001.8 52235.6 51003.8 49864.5 48559.8 48080.4 51371.5 59685.6 47985.6 44801.4 55097.8 44760.6
threshold=26.372154235839847 49.203989028930671 1.681451737880707 7.4630219936370858 -50.419694900512688 13.11152219772339 21.228430747985843 29.997854232788089 -58.388887405395501 -16.125014305114743 13.997369289398195 -16.388889312744137 -20.831022262573239 -70.82167816162108 49.623655319213874 -16.614426612854 23.926015853881839 29.292586326599125 -8.6680846214294416 28.6500997543335 34.250642776489265 33.910497665405281 -47.460655212402337 17.67539215087891 34.405643463134773 -43.283494949340813 -28.030362129211422 -60.058649063110344 -8.1130199432373029 28.861201286315922
decision_type=2 2 2 2 2 2 2 2 2 2 2 2 2 2 2 2 2 2 2 2 2 2 2 2 2 2 2 2 2 2
left_child=1 3 7 4 14 15 8 -3 -5 -4 -6 12 13 -10 -1 -2 22 -12 19 -19 -21 -9 -15 24 -11 -26 -7 -14 -29 -13
right_child=5 2 9 6 10 26 -8 21 11 23 17 29 27 16 -16 -17 -18 18 -20 20 -22 -23 -24 -25 25 -27 -28 28 -30 -31
leaf_value=-1.2686512170809099 -1.1301517795828968 -1.6205104052386385 1.2532069600556257 3.9871747130751611 -1.0023280633934613 -1.4428445878336016 -0.61243174216326546 -0.28465729579984006 3.7721890985965731 -0.56934227396051085 0.080726483562355678 4.537404195467631 0.18475845322371967 3.0380165424826857 1.21861498270716 0.64747389587489046 0.8637552647540967 1.8493700957523203 0.27530298796091374 2.1092828160625396 0.45133896299084209 -1.0830861596186665 1.0823175528535136 2.1668134724652326 2.9987837228037062 0.23638783361185603 -2.4418294416898387 1.7099638668396935 -0.0031905742362141609 1.7338800173252822
leaf_weight=116 194 188 159 25 58 245 51 683 34 225 243 24 166 77 28 55 144 212 262 59 217 274 54 27 21 284 236 176 64 35
leaf_count=116 194 188 159 25 58 245 51 683 34 225 243 24 166 77 28 55 144 212 262 59 217 274 54 27 21 284 236 176 64 35
internal_value=-2.51023e-09 0.28505 -0.288056 0.806591 0.447718 -1.52522 1.31112 -0.695059 1.4339 0.362808 0.616618 1.35143 1.22577 1.76378 -0.785016 -0.737504 1.51547 0.711179 0.915445 1.25913 0.805754 -0.513257 2.23185 0.108637 0.00378602 0.426586 -1.93299 0.816304 1.25312 2.8743
internal_weight=4636 3906 1861 2045 1195 730 850 1145 799 716 1051 774 715 309 144 249 275 993 750 488 276 957 131 557 530 305 481 406 240 59
internal_count=4636 3906 1861 2045 1195 730 850 1145 799 716 1051 774 715 309 144 249 275 993 750 488 276 957 131 557 530 305 481 406 240 59
is_linear=0
shrinkage=0.05


Tree=18
num_leaves=31
num_cat=0
split_feature=38 28 37 9 49 44 44 31 20 43 28 32 41 17 20 29 24 6 52 40 37 62 41 31 40 50 51 49 29 35
split_gain=743056 311489 270672 138966 128444 91284.8 72876.5 74753 71998 68601 59871.7 51495 74202 55769.1 51036.7 50162.5 59554.8 56168 48814.2 41873.9 41382.9 40806.5 44944 52001.6 58881.1 40216.4 42010.9 39941.2 58219.7 39856.2
threshold=-25.121109008789059 51.154684066772468 -42.728876113891594 38.276536941528327 -50.419694900512688 26.372154235839847 -22.316826820373532 43.220863342285163 31.910874366760257 -40.833333969116204 43.40612983703614 28.38437652587891 18.184869766235355 -21.807354927062985 28.2768087387085 44.611112594604499 54.005414962768562 -22.84671592712402 -27.554524421691891 -28.030362129211422 -42.728876113891594 45.940612792968757 -9.0958981513977033 36.895980834960945 -60.996328353881829 -0.68778887391090382 -44.230783462524407 -39.117454528808587 34.720548629760749 -33.344247817993157
decision_type=2 2 2 2 2 2 2 2 2 2 2 2 2 2 2 2 2 2 2 2 2 2 2 2 2 2 2 2 2 2
left_child=2 3 6 5 14 9 7 10 -4 -2 -1 -6 13 -13 -3 16 25 -18 27 -10 -14 22 23 -15 -25 26 -11 -19 -29 -8
right_child=1 4 8 -5 11 -7 29 -9 19 15 -12 12 20 21 -16 -17 17 18 -20 -21 -22 -23 -24 24 -26 -27 -28 28 -30 -31
leaf_value=1.3007427788012988 2.161077259046825 -1.9231025177499523 -2.0192768419256817 -0.70803198567522108 -0.67370873905940742 -0.60824974276633426 0.52021884837020671 2.6431280710979514 -0.7630614273491938 2.2368801776100606 -0.49458395132524341 0.28418730900797778 1.3326648816980164 0.99378396059785568 -0.59523057753445474 -0.91887791701725563 3.6530195146799089 1.1262412071277699 0.36380790379401806 -1.6179836697970764 -0.72016141297528524 -0.2375547063761744 0.36883217921623818 4.8682901954650886 1.8076613930138674 1.1016114098584884 0.42244272885818895 4.5592461905309127 1.6553502416279582 -0.73724807923000946
leaf_weight=77 127 92 332 134 134 88 78 38 362 34 117 229 29 42 339 35 32 75 74 237 160 29 39 30 33 722 517 28 45 328
leaf_count=77 127 92 332 134 134 88 78 38 362 34 117 229 29 42 339 35 32 75 74 237 160 29 39 30 33 722 517 28 45 328
internal_value=-3.65618e-10 0.452755 -0.885023 0.844663 -0.195112 0.961748 -0.0917093 0.615214 -1.42867 1.04355 0.217994 0.211254 0.411906 0.796057 -0.878674 0.952686 0.995584 1.69463 1.41234 -1.10132 -0.405177 1.47362 1.81823 2.35658 3.2651 0.856104 0.534404 1.93661 2.76917 -0.495666
internal_weight=4636 3067 1569 1911 1156 1777 638 232 931 1689 194 725 591 402 431 1562 1527 254 222 599 189 173 144 105 63 1273 551 148 73 406
internal_count=4636 3067 1569 1911 1156 1777 638 232 931 1689 194 725 591 402 431 1562 1527 254 222 599 189 173 144 105 63 1273 551 148 73 406
is_linear=0
shrinkage=0.05


Tree=19
num_leaves=31
num_cat=0
split_feature=66 28 44 58 38 20 38 9 44 25 17 60 9 48 59 61 41 62 43 13 53 45 26 29 23 59 12 45 27 55
split_gain=672612 340126 156224 140153 113992 97442.7 86423.7 80009.4 78276.4 66919.9 64964.1 57670 52660.5 49175.1 47998.9 47576.2 75829.8 44208.2 38854.7 38316.6 38033.4 45157.7 45848.6 40926.2 37431.4 85659.3 46864.7 37923.9 36197.2 35563.8
threshold=0.94896170496940624 50.890289306640632 26.690349578857425 -37.958448410034173 -24.273063659667965 38.054487228393562 -25.776118278503414 33.691057205200202 -23.534767150878903 -29.222222328186032 -22.204122543334957 6.460728883743287 18.046133995056156 39.881835937500007 -41.132286071777337 32.495246887207038 -11.403208732604979 32.189867019653327 53.627288818359382 -48.209459304809563 20.336434364318851 32.578943252563484 -43.786251068115227 -19.61988544464111 52.277776718139656 -8.1364660263061506 -54.211383819580071 42.776147842407234 34.802394866943366 61.98480415344239
decision_type=2 2 2 2 2 2 2 2 2 2 2 2 2 2 2 2 2 2 2 2 2 2 2 2 2 2 2 2 2 2
left_child=1 4 6 10 8 -5 29 9 20 -6 -3 13 17 -8 -11 16 18 -7 -12 -16 -1 23 -23 -22 26 -26 -21 -27 -9 -2
right_child=2 3 -4 5 7 12 11 28 -10 14 15 -13 -14 -15 19 -17 -18 -19 -20 24 21 22 -24 -25 25 27 -28 -29 -30 -31
leaf_value=2.9714263159604304 -1.4642334820797382 -0.063372803183872839 -1.6320635038769613 -1.2617887903889382 3.4379846845903708 0.021310827975541777 2.1130165281749909 0.72556694447994241 -0.37928745296157773 -1.228385702046481 2.109451577257603 1.7619748218701436 -0.459341415454944 -0.3681608915566959 -0.70151183690343588 0.22096696354840933 0.18508118277504332 2.0834081184573292 4.7407211512327194 0.071312316259942374 0.30554258173162285 -0.59470693067364067 2.1241633071005346 3.2107393556170991 3.9320700556039814 2.2357034886584564 1.1857558270371313 -0.062887555257858427 -0.43510288124888891 -0.32698757061638783
leaf_weight=21 236 242 518 358 31 71 21 148 305 22 47 39 375 407 28 76 42 41 20 104 22 69 20 27 39 34 1015 38 123 97
leaf_count=21 236 242 518 358 31 71 21 148 305 22 47 39 375 407 28 76 42 41 20 104 22 69 20 27 39 34 1015 38 123 97
internal_value=6.23962e-11 0.379577 -0.955567 -0.262462 0.778733 -0.635551 -0.517535 0.980854 0.089607 1.14252 0.475853 -0.0786962 -0.175196 -0.246421 1.08693 1.18122 1.85075 0.776186 2.89491 1.12742 0.989059 0.687394 0.0162751 1.90637 1.16905 2.04482 1.08218 1.02256 0.198768 -1.13296
internal_weight=4636 3318 1318 1272 2046 845 800 1582 464 1311 427 467 487 428 1280 185 109 112 67 1258 159 138 89 49 1230 111 1119 72 271 333
internal_count=4636 3318 1318 1272 2046 845 800 1582 464 1311 427 467 487 428 1280 185 109 112 67 1258 159 138 89 49 1230 111 1119 72 271 333
is_linear=0
shrinkage=0.05


Tree=20
num_leaves=31
num_cat=0
split_feature=38 35 37 66 20 0 30 20 40 0 20 52 56 61 36 30 44 20 35 44 51 54 17 7 43 40 8 10 44 16
split_gain=611580 272422 195055 121072 102036 75872.2 69872 66846.8 56752.7 53665.1 52940.3 52210.4 69076.1 49272.4 47294.6 47285.6 46516.8 51009.5 44695.3 44075.1 44889.1 44022.3 42809.6 42196.3 40833.2 40554.5 40162 45052.4 60892.3 39982.3
threshold=-28.889589309692379 12.223417282104494 -43.064359664916985 0.94896170496940624 29.001777648925785 -34.923851013183587 40.279186248779304 49.428525924682624 -47.912315368652337 -35.977571487426751 36.013690948486335 -42.550804138183587 58.000823974609382 -20.363628387451168 31.103751182556156 -43.833333969116204 -23.534767150878903 47.999504089355476 33.492168426513679 -15.105486392974852 -44.834196090698235 21.253840446472172 -25.788333892822262 69.80789947509767 -43.611112594604485 -36.25529479980468 58.427040100097663 28.205958366394047 13.136093139648439 -26.980854988098141
decision_type=2 2 2 2 2 2 2 2 2 2 2 2 2 2 2 2 2 2 2 2 2 2 2 2 2 2 2 2 2 2
left_child=2 3 16 5 8 25 7 -6 -3 29 -4 14 15 -12 22 -13 17 -1 -8 20 -14 -19 -7 -24 -17 -2 27 28 -27 -5
right_child=1 4 10 9 6 11 18 -9 -10 -11 13 12 19 -15 -16 24 -18 21 -20 -21 -22 -23 23 -25 -26 26 -28 -29 -30 -31
leaf_value=-0.5565102705768511 2.9447902946245104 -0.63961245466310246 -1.8235782310748712 3.0867617803812029 -0.72043720774829678 1.0345687057426636 0.78253878790443232 0.53664965279452459 -2.2776046907901768 -0.44020451497133473 0.63222484719462513 -0.39851703671738509 2.7083452111482624 -1.1926843604122206 0.70553599743062967 3.1517096166414298 -0.43334319693967704 3.4324008305867517 -0.49584251498238424 -0.56029787652634011 0.26710386990239809 0.77251094174881785 1.7740993941913954 4.1311369580955342 0.94766940070367822 3.9459426297591289 2.1817147978714533 0.56726184748737507 0.48989652768941599 0.030017137786616452
leaf_weight=51 42 156 390 20 406 94 295 143 80 292 41 64 20 378 255 22 320 21 89 178 322 60 55 29 469 26 91 179 25 23
leaf_count=51 42 156 390 20 406 94 295 143 80 292 41 64 20 378 255 22 320 21 89 178 322 60 55 29 469 26 91 179 25 23
internal_value=-1.77644e-10 0.351031 -0.939516 0.67804 -0.266061 0.834778 -0.0311229 -0.392999 -1.19486 -0.197355 -1.40434 0.678561 0.491843 -1.01411 1.14212 0.879801 -0.107568 0.68219 0.486247 0.0777718 0.409867 1.46211 1.76757 2.58784 1.04642 1.48374 1.29258 0.94079 2.2518 1.45176
internal_weight=4636 3375 1261 2206 1169 1871 933 549 236 335 809 1508 1075 419 433 555 452 132 384 520 342 81 178 84 491 363 321 230 51 43
internal_count=4636 3375 1261 2206 1169 1871 933 549 236 335 809 1508 1075 419 433 555 452 132 384 520 342 81 178 84 491 363 321 230 51 43
is_linear=0
shrinkage=0.05


Tree=21
num_leaves=31
num_cat=0
split_feature=44 24 38 35 12 36 30 35 30 0 63 29 52 13 47 24 20 25 32 24 59 34 39 28 47 30 34 19 34 44
split_gain=562076 327733 152331 80682.4 77869.8 74307 73144 69754 60514.5 56513.6 55378.4 69092.2 51281.3 45525.4 50745.8 45109.8 53729 44691 42810.9 42726.1 42415 41984.6 49715.6 41696.4 97019.5 45764.8 47734.6 46657.8 53944.9 40556.6
threshold=26.372154235839847 49.001579284667976 -26.657881736755368 34.487054824829109 -29.881228446960446 19.757710456848148 45.781620025634773 13.11152219772339 51.74992752075196 -37.329103469848626 28.6500997543335 33.448232650756843 -36.546949386596673 -43.899549484252923 -16.388889312744137 52.995731353759773 52.997007369995124 37.708021163940437 37.305624008178718 44.999938964843757 -16.614426612854 -39.958845138549798 14.441902637481691 -33.944444656372063 -59.557544708251946 14.452667713165285 34.014986038208015 -41.520582199096673 24.66760349273682 -26.994853973388668
decision_type=2 2 2 2 2 2 2 2 2 2 2 2 2 2 2 2 2 2 2 2 2 2 2 2 2 2 2 2 2 2
left_child=1 2 5 8 6 19 10 20 9 17 11 13 -11 -3 23 -12 -17 -4 -13 -1 -2 22 -14 24 -15 26 -25 -27 -29 -7
right_child=7 4 3 -5 -6 29 -8 -9 -10 12 15 18 21 14 -16 16 -18 -19 -20 -21 -22 -23 -24 25 -26 27 -28 28 -30 -31
leaf_value=-0.64333942532539368 -0.94166202519818687 3.0225527169638209 3.3190815839767454 -0.74917068017620436 0.035981193081489907 0.2651118324353145 3.5080858652080806 -1.625162257179773 1.2041971937534803 0.38978848415956541 0.16051352270556696 0.023828710303976645 2.0353510304408915 0.92090496753537376 3.7047557597810576 0.84580279774738087 3.5899249762296677 0.29841607337196668 1.9622419265338351 2.320848290381893 0.63140538995916196 -0.64230301327321659 -0.072300866406552408 -0.96030814518799668 4.7899454501958996 1.0235730322202048 0.96593734066842529 1.3833283275365831 4.8465162971745368 -0.93946164431142032
leaf_weight=20 194 45 25 213 264 78 28 481 162 677 318 153 34 43 22 165 20 24 35 31 55 306 158 37 26 60 246 22 23 671
leaf_count=20 194 45 25 213 264 78 28 481 162 677 318 153 34 43 22 165 20 24 35 31 55 306 158 37 26 60 246 22 23 671
internal_value=2.26101e-10 0.238008 -0.124991 0.156827 0.815868 -0.688276 0.981507 -1.2735 0.29606 0.175866 0.923282 1.20701 0.106486 1.50203 1.35918 0.521669 1.14246 1.83957 0.384704 1.15842 -0.594197 -0.278647 0.300929 1.24627 2.3788 1.04486 0.714096 1.93636 3.1534 -0.814019
internal_weight=4636 3906 2399 1599 1507 800 1243 730 1386 1224 1215 712 1175 524 479 503 185 49 188 51 249 498 192 457 69 388 283 105 45 749
internal_count=4636 3906 2399 1599 1507 800 1243 730 1386 1224 1215 712 1175 524 479 503 185 49 188 51 249 498 192 457 69 388 283 105 45 749
is_linear=0
shrinkage=0.05


Tree=22
num_leaves=31
num_cat=0
split_feature=66 60 24 41 12 60 9 38 58 49 17 57 44 16 52 3 16 19 33 25 44 31 52 49 63 6 11 31 38 38
split_gain=514062 262676 142796 119344 76606.9 71361.2 70226.4 59721.4 55584.2 52031.1 59551.2 48576.6 63663.6 68336.9 45530.7 45495.3 44346.7 41110.9 37791.1 35018.8 47036 41761.2 39130.4 60692.2 48514 56216.4 46499.1 39891.8 36894.5 32371.2
threshold=0.94896170496940624 -46.171001434326165 49.998420715332038 22.040817260742191 -51.553119659423821 -51.582265853881829 38.059715270996101 -35.72778129577636 20.449720382690433 -52.664943695068352 -25.668208122253414 26.983347892761234 -20.831022262573239 -34.109445571899407 -33.209262847900384 27.424838066101078 -43.826406478881829 -5.5299251079559317 33.069419860839851 -29.222222328186032 16.684972763061527 29.292586326599125 -22.319918632507321 -38.288980484008782 28.6500997543335 18.668498992919925 -24.919946670532223 37.659236907958991 -2.4493589401245113 -6.4513435363769522
decision_type=2 2 2 2 2 2 2 2 2 2 2 2 2 2 2 2 2 2 2 2 2 2 2 2 2 2 2 2 2 2
left_child=1 5 4 6 -3 -1 7 -2 -5 -6 -11 16 13 -13 -7 -14 -4 18 -9 -18 21 -21 23 24 25 26 27 -23 -25 -12
right_child=3 2 11 8 9 14 -8 17 -10 10 29 12 15 -15 -16 -17 19 -19 -20 20 -22 22 -24 28 -26 -27 -28 -29 -30 -31
leaf_value=-1.3273678006174474 -1.7175501295788722 -0.46174721238448435 -0.86783055034843659 -0.79528422348148198 -0.23071519575017665 0.13662022186218722 -1.4390531591114377 0.25913192225806986 -1.6343089283600745 0.17040314995015735 0.53444218785691078 1.8412371948080244 0.28075180066128574 5.1048793481743857 -0.93845381149957918 2.0349844806122057 2.8253590905148052 2.325881793553179 -1.5407547749578954 0.23630687372625939 -0.093196435429547975 2.1796475830126782 -0.36219366096161509 0.93350035112637753 0.57937346090304176 0.019442748427391052 1.1976647182422526 4.6341281642913819 3.1774316826174336 1.3007355277928023
leaf_weight=208 44 304 37 386 247 307 101 329 404 481 266 53 84 23 145 66 23 22 32 140 114 49 37 26 227 40 68 25 62 286
leaf_count=208 44 304 37 386 247 307 101 329 404 481 266 53 84 23 145 66 23 22 32 140 114 49 37 26 227 40 68 25 62 286
internal_value=6.07986e-10 0.331838 0.553523 -0.835385 0.251754 -0.560948 -0.253403 0.0270432 -1.22436 0.42121 0.577092 0.99859 1.64996 2.82892 -0.20826 1.05261 0.824994 0.227466 0.0995852 0.902226 0.846094 1.00496 1.20649 1.32327 1.06697 1.67514 2.14153 3.00886 2.51445 0.931471
internal_weight=4636 3318 2658 1318 1584 660 528 427 790 1280 1033 1074 226 76 452 150 848 383 361 811 788 674 534 497 409 182 142 74 88 552
internal_count=4636 3318 2658 1318 1584 660 528 427 790 1280 1033 1074 226 76 452 150 848 383 361 811 788 674 534 497 409 182 142 74 88 552
is_linear=0
shrinkage=0.05


Tree=23
num_leaves=31
num_cat=0
split_feature=38 28 44 9 49 24 44 0 48 47 31 28 32 41 49 41 29 24 3 17 3 54 27 13 17 52 10 20 40 42
split_gain=468146 195131 174737 101049 91740.4 77427.1 63996.4 81654.8 63480.7 73741.2 54220.3 45510 43317.5 66395.3 42862.6 58000.4 55655.4 71297.8 53634.3 42662.5 40705.1 45059.3 52496.4 39461.9 38429.7 75365.4 37578.4 37483.2 37017.4 34916.9
threshold=-25.121109008789059 51.154684066772468 -22.316826820373532 38.276536941528327 -50.419694900512688 41.251249313354499 18.584835052490238 -38.539876937866204 34.281690597534187 -60.915613174438469 42.629768371582038 43.40612983703614 31.405840873718265 11.463306427001955 -44.392593383789055 -26.127480506896969 40.405851364135749 54.565536499023445 30.150729179382328 -29.20248985290527 27.424838066101078 44.266950607299812 -32.377296447753899 -40.201433181762688 22.50846099853516 -21.771339416503903 55.089279174804695 28.2768087387085 -29.92691612243652 -42.997379302978509
decision_type=2 2 2 2 2 2 2 2 2 2 2 2 2 2 2 2 2 2 2 2 2 2 2 2 2 2 2 2 2 2
left_child=2 3 10 6 27 28 8 -8 9 -2 11 -1 -6 -14 15 -10 17 19 20 -16 21 22 -17 -24 -7 -26 -12 -3 29 -4
right_child=1 4 5 -5 12 24 7 -9 14 -11 26 -13 13 -15 16 18 -18 -19 -20 -21 -22 -23 23 -25 25 -27 -28 -29 -30 -31
leaf_value=1.0314242041730262 1.064315677630274 -1.6261704611996919 -1.230405693661563 -0.6544704421840386 -0.49772784226927264 -0.64492388660200017 2.5344055525461835 -0.22802689153293848 -0.07306315950644067 4.5608160781860354 0.72869614268604088 -0.48003542528930288 0.89652826690421428 -0.20844131622952028 0.42610060653306664 -1.301691801731403 -0.28551089577376842 2.4048416325157245 0.0034931086283877381 1.3718652030596368 2.8759042821824554 3.0164778842375828 2.1639063921666915 0.74767077047409136 2.9459676219069442 -0.68034420076169466 3.2247127971649174 -0.48819487169604736 -1.6808839496568995 -0.17033994520462833
leaf_weight=77 38 92 316 134 174 483 30 247 239 25 38 141 307 244 193 26 64 112 133 312 32 26 62 238 23 38 25 339 325 103
leaf_count=77 38 92 316 134 174 483 30 247 239 25 38 141 307 244 193 26 64 112 133 312 32 26 62 238 23 38 25 339 325 103
internal_value=7.73464e-10 0.359371 -0.70248 0.669559 -0.153405 -0.94894 0.769402 0.0711535 0.898345 2.45182 0.427199 0.0538288 0.190027 0.407213 0.830238 0.571063 1.11796 1.26354 0.868831 1.01041 1.16854 1.01333 0.85357 1.04036 -0.495577 0.686954 1.71918 -0.731104 -1.28043 -0.969817
internal_weight=4636 3067 1569 1911 1156 1288 1777 277 1500 63 281 218 725 551 1437 756 681 617 517 505 384 352 326 300 544 61 63 431 744 419
internal_count=4636 3067 1569 1911 1156 1288 1777 277 1500 63 281 218 725 551 1437 756 681 617 517 505 384 352 326 300 544 61 63 431 744 419
is_linear=0
shrinkage=0.05


Tree=24
num_leaves=31
num_cat=0
split_feature=44 24 38 60 57 36 12 54 35 30 52 25 26 52 19 41 22 40 29 13 14 51 13 17 20 0 24 12 20 20
split_gain=429436 242810 116670 67517.5 66373.2 60769.4 59026.9 58555.6 55115.4 54839 57840.7 64702.5 56890.8 40823.6 47576.6 49709.4 48817.7 46878.2 39970.7 49426.7 59319.1 39079.9 37971.4 54068.2 58451.2 36699.6 36200.7 34581.2 34258.5 33257.1
threshold=26.372154235839847 49.001579284667976 -26.657881736755368 -50.999176025390618 23.712218284606937 19.757710456848148 -33.668430328369134 45.321763992309577 13.11152219772339 52.912757873535163 -43.463048934936516 24.684780120849613 -53.878103256225579 -22.927027702331539 19.346508979797367 1.0000000180025095e-35 18.560125350952152 -35.578317642211907 33.036230087280281 -33.445844650268548 -60.379678726196282 -32.810197830200188 -39.88775444030761 -28.509863853454586 52.353361129760749 50.016073226928718 44.999938964843757 -51.553119659423821 30.734036445617679 36.013690948486335
decision_type=2 2 2 2 2 2 2 2 2 2 2 2 2 2 2 2 2 2 2 2 2 2 2 2 2 2 2 2 2 2
left_child=1 2 5 -4 6 26 13 18 27 10 -5 12 -12 14 15 16 22 -15 19 20 -6 25 23 -3 -25 28 -1 -2 -13 -7
right_child=8 4 3 9 7 29 -8 -9 -10 -11 11 21 -14 17 -16 -17 -18 -19 -20 -21 -22 -23 -24 24 -26 -27 -28 -29 -30 -31
leaf_value=-0.58582314729690554 -0.89985969602803273 -0.20556796421022977 -0.97347610700130471 0.84764435545775152 4.3594695559569763 -1.2413472210988403 -0.11085240374714565 2.9751451297946598 -1.4257347240176619 1.2902149306577551 3.7511515760421754 -0.49104484713994545 0.5349763857708737 1.7860607403775921 3.1406808571382001 0.098718683497252213 2.2778213767444386 -0.7717347228600655 -0.37112781930537453 0.50364328866292329 1.4858396058361378 -0.37990771845878224 0.56823888318027771 1.4794420965882236 4.3171449949317005 -0.38661812848371008 2.1426390407546871 0.37969793355778647 0.7918349393340135 -0.50174529708998217
leaf_weight=20 173 34 125 243 21 212 278 46 481 114 20 65 44 23 22 197 68 81 42 112 124 566 350 86 23 161 31 76 261 537
leaf_count=20 173 34 125 243 21 212 278 46 481 114 20 65 44 23 22 197 68 81 42 112 124 566 350 86 23 161 31 76 261 537
internal_value=2.61437e-09 0.208038 -0.10441 0.142225 0.705426 -0.597372 0.524619 1.31441 -1.11315 0.23684 0.148542 -0.00354547 1.54003 0.724461 0.848532 0.782005 1.02195 -0.206068 1.05891 1.29261 1.90202 -0.0973621 0.848723 1.53522 2.07822 0.231017 1.07265 -0.509312 0.536046 -0.711085
internal_weight=4636 3906 2399 1599 1507 800 1162 345 730 1474 1360 1117 64 884 780 758 561 104 299 257 145 1053 493 143 109 487 51 249 326 749
internal_count=4636 3906 2399 1599 1507 800 1162 345 730 1474 1360 1117 64 884 780 758 561 104 299 257 145 1053 493 143 109 487 51 249 326 749
is_linear=0
shrinkage=0.05


Tree=25
num_leaves=31
num_cat=0
split_feature=66 60 24 41 9 12 60 19 49 20 28 43 22 30 20 31 55 40 52 8 20 47 61 44 17 20 45 0 58 8
split_gain=395536 205089 107630 92107.5 59951 58979.9 57082.3 52916.4 46646.2 45362.8 43126.9 42952.4 40355.7 38909.5 48241.7 38836.3 38589.6 49168.2 36268.7 34422 44378.4 33170.9 36536.2 40647.8 60558.4 32315 31926.3 29805.2 35624.9 31558.9
threshold=0.94896170496940624 -46.171001434326165 49.998420715332038 22.040817260742191 33.691057205200202 -51.553119659423821 -51.582265853881829 -5.5299251079559317 -57.399505615234368 27.11625957489014 38.12011909484864 -42.611112594604485 -24.891178131103512 45.781620025634773 48.268568038940437 29.292586326599125 53.31440734863282 -20.581456184387203 -33.209262847900384 -16.735038757324215 30.889325141906742 22.101613044738773 24.873880386352543 -16.395676612854 -22.327018737792965 52.747537612915046 35.11010932922364 -35.019853591918938 -8.4403166770935041 60.10798645019532
decision_type=2 2 2 2 2 2 2 2 2 2 2 2 2 2 2 2 2 2 2 2 2 2 2 2 2 2 2 2 2 2
left_child=1 6 5 4 7 -3 -1 8 -2 -5 -7 16 26 15 -15 -13 17 -4 -8 -14 -21 22 27 24 -24 -26 -12 29 -29 -17
right_child=3 2 11 9 -6 10 18 -9 -10 -11 12 13 19 14 -16 21 -18 -19 -20 20 -22 -23 23 -25 25 -27 -28 28 -30 -31
leaf_value=-1.1832622574740808 -1.3051905124874439 -0.40108192304002221 1.1695262295859201 -1.6748893202145894 -1.0223187046286502 1.1177984410665445 0.12544940225173284 2.4024698510766029 0.2403200760641705 -0.8353949851003698 -1.416380375411296 0.036334278864519939 1.6377106655102509 0.8396662491559983 3.9642798092393647 0.89494686923860545 0.35824705820817215 4.0828354454040534 -0.83406599462803066 -0.61638933265847828 0.44795455496328379 2.7321216894232712 0.21031489128089814 2.8200908633267012 1.2896959133148194 3.9861519479751588 0.041658479503609923 0.72004958127674312 -0.25628830867169577 2.8436216130256655
leaf_weight=208 59 304 28 225 162 169 307 24 283 565 57 175 52 30 21 123 26 30 145 112 780 23 83 41 25 20 110 285 139 25
leaf_count=208 59 304 28 225 162 169 307 24 283 565 57 175 52 30 21 123 26 30 145 112 780 23 83 41 25 20 110 285 139 25
internal_value=-2.69533e-10 0.291079 0.486962 -0.732777 -0.2215 0.224973 -0.497796 0.132961 -0.0263031 -1.07449 0.373661 0.873359 0.260467 0.781254 2.12627 0.708202 1.95888 2.67641 -0.18236 0.387214 0.314315 0.862098 0.804054 1.44997 1.01111 2.48812 -0.455996 0.613215 0.399977 1.22411
internal_weight=4636 3318 2658 1318 528 1584 660 366 342 790 1280 1074 1111 990 51 939 84 58 452 944 892 764 741 169 128 45 167 572 424 148
internal_count=4636 3318 2658 1318 528 1584 660 366 342 790 1280 1074 1111 990 51 939 84 58 452 944 892 764 741 169 128 45 167 572 424 148
is_linear=0
shrinkage=0.05


Tree=26
num_leaves=31
num_cat=0
split_feature=38 35 37 66 20 40 48 49 20 51 40 47 59 20 29 54 0 57 28 20 46 45 41 20 61 32 37 37 17 13
split_gain=359559 162637 119296 71505 70093 54336 50300.3 45941.9 45534.6 50532.1 41982.7 41853.1 41285 61252.3 44389.6 48257.8 39153.2 39008.2 49121.8 48941.9 36469 36396.9 35835.3 34740.5 40409.7 33709.2 61777.8 45357.6 33216.6 32705.9
threshold=-28.889589309692379 9.0129270553588885 -42.99882507324218 0.94896170496940624 29.001777648925785 -66.860015869140611 34.281690597534187 -44.664539337158196 49.428525924682624 0.72937542200088512 -47.912315368652337 -30.388889312744137 -26.395815849304196 55.001579284667976 40.405851364135749 53.151094436645515 -38.189603805541985 -12.990822792053221 38.90350532531739 48.418052673339851 58.734769821166999 38.816366195678718 29.830393791198734 36.013690948486335 -20.363628387451168 17.030557632446293 -52.587480545043938 -55.719448089599602 27.146891593933109 -26.075911521911618
decision_type=2 2 2 2 2 2 2 2 2 2 2 2 2 2 2 2 2 2 2 2 2 2 2 2 2 2 2 2 2 2
left_child=2 3 17 6 10 -6 20 11 9 29 21 -8 -9 14 15 25 -5 18 -1 -19 -2 -3 -13 -4 -25 -14 27 -27 -18 -7
right_child=1 4 23 16 5 8 7 12 -10 -11 -12 22 13 -15 -16 -17 28 19 -20 -21 -22 -23 -24 24 -26 26 -28 -29 -30 -31
leaf_value=1.0029045584353995 3.8663806581497191 -0.76480029827648111 -1.4260975513626368 1.9449812486058189 1.2858403250967203 0.42959519027411441 0.29224421573594916 0.36226756046917147 0.59744869969986591 -0.8818662039652656 -1.8839045542478563 3.3662052123319537 0.4289131425064186 3.4913189878830546 -0.088706007411208335 3.0067311737467262 -0.094066192841640237 -0.11385804284964839 -0.7771345267401023 1.5715469231659718 1.1446579062845559 1.5124628812074663 0.50941664861596159 0.72168509814797377 -0.93227325978799058 1.7373029568710843 0.99106817266560709 4.6041788350452073 -1.6915410998705274 -0.37438383221074389
leaf_weight=47 20 143 390 21 76 238 869 262 185 237 80 21 145 26 79 34 270 124 221 66 32 20 23 41 372 37 228 22 37 270
leaf_count=47 20 143 390 21 76 238 869 262 185 237 80 21 145 26 79 34 270 124 221 66 32 20 23 41 372 37 228 22 37 270
internal_value=-4.38863e-10 0.269156 -0.720382 0.535193 -0.183683 0.000407161 0.659044 0.613405 -0.104639 -0.278983 -0.945801 0.36842 0.881918 1.12036 1.00725 1.19304 -0.14372 -0.0764334 -0.464963 0.471598 2.19147 -0.485382 1.87288 -1.08766 -0.768079 1.0503 1.36424 2.80631 -0.286596 0.00228351
internal_weight=4636 3375 1261 2126 1249 1006 1798 1746 930 745 243 913 833 571 545 466 328 458 268 190 52 163 44 803 413 432 287 59 307 508
internal_count=4636 3375 1261 2126 1249 1006 1798 1746 930 745 243 913 833 571 545 466 328 458 268 190 52 163 44 803 413 432 287 59 307 508
is_linear=0
shrinkage=0.05


Tree=27
num_leaves=31
num_cat=0
split_feature=44 28 35 9 59 48 24 51 38 9 24 52 27 18 26 15 58 51 0 5 15 56 29 44 15 14 55 32 46 38
split_gain=334802 146951 126233 87899.8 65524.1 61229.4 58627.6 59294 56790.6 48407.7 45619.3 45284.4 52229.2 54193.4 52468.8 54656.5 45076.6 42664.3 40807.5 38036.8 37665.8 35517.7 45943.4 41726.8 40222.6 34397.9 32966.9 41585.5 35942.7 32847
threshold=16.391827583312992 40.812181472778327 -11.335703849792479 39.39506912231446 -21.983716964721676 34.281690597534187 50.263221740722663 -37.004871368408196 0.69118002057075512 21.077049255371097 53.349874496459968 -22.619976043701168 31.823075294494632 -54.096040725708001 -59.258136749267571 47.739435195922859 -16.170203208923336 6.9444444179534921 34.218839645385749 -59.336257934570305 48.967903137207038 58.597089767456062 38.783622741699226 -10.912784576416014 45.597042083740241 -56.804525375366204 61.20495796203614 35.239933013916023 57.545816421508796 15.394515514373781
decision_type=2 2 2 2 2 2 2 2 2 2 2 2 2 2 2 2 2 2 2 2 2 2 2 2 2 2 2 2 2 2
left_child=1 5 4 6 -2 -1 7 -3 -6 10 19 12 13 14 -7 21 25 -4 -9 -8 -15 22 23 24 -16 -13 27 28 -11 -10
right_child=2 3 17 -5 8 11 9 18 29 26 -12 16 -14 20 15 -17 -18 -19 -20 -21 -22 -23 -24 -25 -26 -27 -28 -29 -30 -31
leaf_value=2.5288816302430397 -0.49628757280369662 0.43706724416124798 -0.65927270251484082 -0.92301831144094482 0.0068628288805484775 -0.70369019565128144 2.3735788579340333 -0.051886525103858577 3.2806950315185213 1.0706870031356812 3.9037496660649782 1.9240239374339581 0.3247383236465976 1.6202355768945482 5.5396678901854024 0.47430013202076016 -1.2141461691370719 -1.3630692937976889 -0.91562687347894944 -0.3621276398499807 3.7727913475036625 0.34505195697148644 0.64069240439322694 1.7159714490939413 2.4803956551985311 -0.21063933521509171 0.1114663085610163 -0.1059948869842164 3.2963637416179368 1.0421713566570951
leaf_weight=51 323 614 419 200 136 42 27 977 23 60 20 32 240 63 21 136 54 443 159 24 30 30 31 39 22 46 244 47 26 57
leaf_count=51 323 614 419 200 136 42 27 977 23 60 20 32 240 63 21 136 54 443 159 24 30 30 31 39 22 46 244 47 26 57
internal_value=3.91493e-10 0.279624 -0.645669 0.0805301 -0.045469 0.850026 0.171845 0.0411894 0.628672 0.682217 1.87987 0.741093 0.911595 1.2518 0.943886 1.19191 -0.103671 -1.02097 -0.17278 1.08619 2.31461 1.87439 2.28041 2.9003 3.97446 0.66512 0.456665 1.08996 1.74357 1.68575
internal_weight=4636 3235 1401 2398 539 837 2198 1750 216 448 71 786 654 414 321 279 132 862 1136 51 93 143 113 82 43 78 377 133 86 80
internal_count=4636 3235 1401 2398 539 837 2198 1750 216 448 71 786 654 414 321 279 132 862 1136 51 93 143 113 82 43 78 377 133 86 80
is_linear=0
shrinkage=0.05


Tree=28
num_leaves=31
num_cat=0
split_feature=44 28 9 38 49 20 36 6 36 22 44 40 49 20 8 34 24 9 20 40 45 20 53 17 55 61 22 34 49 63
split_gain=304815 167801 104114 83288.2 50733.1 47402.9 49995.5 47206.5 42784.3 59116.7 41731.2 47346.5 40948.9 40943 63646.6 40856.2 38463.1 41094.7 33564.9 33497 32846.7 32315.4 32110.2 30739.8 41492.1 34725.7 40356 46254 58476 30414.7
threshold=26.372154235839847 40.654958724975593 38.276536941528327 -27.152331352233883 -48.638957977294915 22.666452407836918 -58.388887405395501 -12.577338695526121 -46.166666030883782 5.8677005767822275 -27.119709014892575 -50.455411911010735 -38.288980484008782 50.238006591796882 51.969661712646491 47.770471572875984 53.466539382934577 23.001777648925785 38.849466323852546 -54.700242996215813 46.713939666748054 34.773044586181648 34.510704040527351 -29.076958656311032 64.07574844360353 31.777645111083988 25.069296836853031 -37.197649002075188 -45.391071319580071 41.298828125000007
decision_type=2 2 2 2 2 2 2 2 2 2 2 2 2 2 2 2 2 2 2 2 2 2 2 2 2 2 2 2 2 2
left_child=1 5 3 10 13 -1 -7 8 21 -10 11 -3 19 20 22 -11 23 -18 -4 -2 -5 -8 -15 -6 25 26 27 -25 -29 -30
right_child=12 2 18 4 16 6 7 -9 9 15 -12 -13 -14 14 -16 -17 17 -19 -20 -21 -22 -23 -24 24 -26 -27 -28 28 29 -31
leaf_value=-0.56829044805533857 -0.056688611805438993 2.6387784589759331 -1.4061923705214106 -0.40146510931473922 0.048509527426750326 2.78236141897017 1.6012783634921779 0.51184337702243177 0.1734265132389706 1.3216538279611423 -0.54417532022780013 -0.055496758222579962 0.78320925885980786 1.0482643852233886 -0.21225373905663397 3.8615331196784974 3.5115189218521117 0.82980931174755101 -0.39530664313998493 -1.1441200080745804 1.2280398722850916 3.896667144609534 3.3781041349683494 3.0674059956572779 -0.074766379657249915 0.28920726905630523 0.50015055552340937 0.23705887802549311 3.1113136064715503 0.77136607272993951
leaf_weight=67 80 22 151 492 416 31 46 664 116 76 582 63 33 50 102 20 20 50 180 617 33 23 21 43 173 191 138 74 41 21
leaf_count=67 80 22 151 492 416 31 46 664 116 76 582 63 33 50 102 20 20 50 180 617 33 23 21 43 173 191 138 74 41 21
internal_value=3.8189e-10 0.175272 -0.0225311 0.0864865 0.257982 0.718234 0.80655 0.741735 1.28497 0.93299 -0.393033 0.641845 -0.937824 -0.0792149 0.587882 1.8508 0.459665 1.59601 -0.856466 -1.01931 -0.299039 2.36641 1.73737 0.387154 0.594021 0.821777 1.14266 1.63801 1.18607 2.31875
internal_weight=4636 3906 2863 2532 1865 1043 976 945 281 212 667 85 730 698 173 96 1167 70 331 697 525 69 71 1097 681 508 317 179 136 62
internal_count=4636 3906 2863 2532 1865 1043 976 945 281 212 667 85 730 698 173 96 1167 70 331 697 525 69 71 1097 681 508 317 179 136 62
is_linear=0
shrinkage=0.05


Tree=29
num_leaves=31
num_cat=0
split_feature=66 60 28 40 38 41 53 49 30 46 35 12 17 59 31 53 6 52 60 20 9 7 19 21 38 49 60 62 30 5
split_gain=278452 153204 91714.7 76634.8 66769.4 56677.1 58236 47320.2 53395.8 49711.8 43640.1 41697.5 39905.8 52622.9 70270.8 39532.8 43505.2 38885.2 32843.3 32240.6 40594.1 45940.5 45854.9 38082.5 31943.5 31738.2 31517.6 48020.5 31391 42645.4
threshold=0.94896170496940624 -50.999176025390618 38.12011909484864 -27.148934364318844 -27.152331352233883 22.040817260742191 52.174058914184577 -44.884820938110344 50.52186584472657 36.243370056152351 -30.904076576232907 -37.154819488525384 -18.196455001831051 -26.669526100158688 39.821519851684577 37.274906158447273 -23.808873176574703 -32.571121215820305 -28.390327453613278 22.666452407836918 -33.388887405395501 57.667568206787116 -42.355533599853509 41.000000000000007 1.681451737880707 -38.755592346191399 26.149065971374515 -48.423475265502923 42.288951873779304 -52.72619438171386
decision_type=2 2 2 2 2 2 2 2 2 2 2 2 2 2 2 2 2 2 2 2 2 2 2 2 2 2 2 2 2 2
left_child=1 -1 19 5 15 6 28 8 17 -9 -5 -10 -11 -14 -15 16 -4 -6 -19 -3 22 23 -21 -22 -25 -24 27 -23 -2 -30
right_child=3 2 4 10 7 -7 -8 9 11 12 -12 -13 13 14 -16 -17 -18 18 -20 20 21 26 25 24 -26 -27 -28 -29 29 -31
leaf_value=-0.94086685110445301 -0.2836437036861863 -0.34141390811918038 1.6202308601293809 -0.27672789625655442 0.22311246162872164 -0.71285467638244515 2.6424923121929171 0.12360452823911819 0.341455997199547 0.72327763418937407 -1.3168889911005575 2.7096887742771827 0.017145731619426185 1.5921283060790232 5.0097625028519408 -0.8099550512807252 -0.15848749193395006 -0.82959667555650052 0.38068334273522414 3.7976968420588451 -0.39894657262390659 3.3978545036674905 0.11189289785483306 0.028324337439103561 2.7892805093526842 2.1561370783073959 -0.60867192021438055 0.99816514266907574 1.665904021804983 -0.56670186519622801
leaf_weight=252 264 56 39 133 724 392 22 261 41 310 417 34 28 53 21 223 290 193 79 23 124 22 34 22 20 43 28 398 55 35
leaf_count=252 264 56 39 133 724 392 22 261 41 310 417 34 28 53 21 223 290 193 79 23 124 22 34 22 20 43 28 398 55 35
internal_value=-1.65679e-09 0.244226 0.341631 -0.614828 0.183265 -0.292182 0.146391 0.334959 0.128501 0.663514 -1.06536 1.41505 1.00554 1.86341 2.562 -0.296001 0.0523636 0.0316217 -0.478082 0.813851 0.90446 0.752311 1.83865 0.0418034 1.34307 1.25348 1.01558 1.12386 -0.00873385 0.797668
internal_weight=4636 3318 3066 1318 2296 768 376 1744 1071 673 550 75 412 102 74 552 329 996 272 770 714 614 100 166 42 77 448 420 354 90
internal_count=4636 3318 3066 1318 2296 768 376 1744 1071 673 550 75 412 102 74 552 329 996 272 770 714 614 100 166 42 77 448 420 354 90
is_linear=0
shrinkage=0.05


Tree=30
num_leaves=31
num_cat=0
split_feature=44 28 50 26 48 24 9 38 57 54 35 52 61 52 1 8 31 10 61 0 18 46 30 17 60 59 0 26 46 17
split_gain=257959 107734 99850 71169.2 52751 49970.8 59298 45713.9 45569.9 57334.7 44691.4 44610.8 42161.3 39272.7 44129.4 60588.9 43108.7 41765.7 39400.7 42777.9 39003.5 38223.9 43136.8 36780.4 34077.4 32968.5 32702.7 32114.7 33009.7 29903.8
threshold=16.391827583312992 40.812181472778327 -15.450253963470457 -51.81489181518554 34.281690597534187 50.927024841308601 21.714930534362797 -15.727154731750487 27.452925682067875 38.508144378662116 20.020380973815922 -40.973182678222649 -30.406064987182614 -22.619976043701168 -15.773779869079588 53.111373901367195 45.003139495849616 53.549985885620124 16.5006217956543 -37.329103469848626 -74.944442749023423 61.63380432128907 50.52186584472657 -16.6692361831665 -38.092220306396477 21.167530059814457 -39.423748016357415 -57.376384735107415 56.627038955688484 24.055626869201664
decision_type=2 2 2 2 2 2 2 2 2 2 2 2 2 2 2 2 2 2 2 2 2 2 2 2 2 2 2 2 2 2
left_child=1 4 12 5 29 21 7 -7 10 -10 -5 -4 25 14 16 17 -6 -16 19 26 -15 22 -3 -24 -20 27 -17 -2 -29 -1
right_child=2 3 11 8 13 6 -8 -9 9 -11 -12 -13 -14 20 15 18 -18 -19 24 -21 -22 -23 23 -25 -26 -27 -28 28 -30 -31
leaf_value=1.1948136461632592 -0.55216191179222529 -0.014591432818678758 0.057259436836030998 -0.082041666011880093 0.19962234552018346 0.68342896997928626 0.56398072553788381 3.7906930284253484 3.2818500018119816 -0.010891044445526906 -0.80501800870101892 -1.0332666964537669 -0.33655473215773046 -1.8893709943844723 1.5928602780935899 0.21504386249272264 2.4953452882441609 4.0394941960389801 0.14699259749774277 -0.34649879455566412 0.27170082783361654 1.6185927266763018 0.2209340014975322 1.7313951006105968 2.1770037643611433 2.0896290391683578 2.4245874278811796 2.1999963812530043 0.11799642614861752 3.6279989284017811
leaf_weight=28 63 943 107 632 290 20 183 29 20 39 323 759 362 26 53 34 22 26 29 95 106 44 95 70 72 31 33 32 47 23
leaf_count=28 63 943 107 632 290 20 183 29 20 39 323 759 362 26 53 34 22 26 29 95 106 44 95 70 72 31 33 32 47 23
internal_value=5.86114e-10 0.245446 -0.566751 0.0749762 0.73384 0.30813 0.977617 2.52242 -0.243253 1.10529 -0.326567 -0.898525 -0.0297099 0.63273 0.791512 1.1838 0.3615 2.39808 0.819059 0.335836 -0.153965 0.173303 0.115909 0.861736 1.59413 0.612358 1.30333 0.289856 0.961338 2.29213
internal_weight=4636 3235 1401 2398 837 1384 232 49 1014 59 955 866 535 786 654 342 312 79 263 162 132 1152 1108 165 101 173 67 142 79 51
internal_count=4636 3235 1401 2398 837 1384 232 49 1014 59 955 866 535 786 654 342 312 79 263 162 132 1152 1108 165 101 173 67 142 79 51
is_linear=0
shrinkage=0.05


Tree=31
num_leaves=31
num_cat=0
split_feature=38 44 28 9 31 44 0 19 37 50 20 17 27 53 57 51 56 44 20 7 20 0 15 8 28 6 28 51 30 54
split_gain=234022 106604 99187.6 58594.9 45340.2 43535.9 63718.8 43636.6 69672.3 41505.9 38706.9 40390.5 41207.2 38064.5 37147.2 36432.6 36213.2 34283 34062.8 32287.6 30230.9 35991.9 34738.2 30086.7 29301.2 50252.7 37361.4 30288.4 29170.1 29047.6
threshold=-25.366032600402828 -22.316826820373532 53.26178169250489 38.276536941528327 42.629768371582038 18.584835052490238 -38.539876937866204 7.2740843296051034 -57.720682144165032 -18.709663391113278 25.968489646911625 -25.788333892822262 35.609601974487312 33.680273056030281 7.4630219936370858 -31.744349479675289 57.000249862670906 -25.510683059692379 31.910874366760257 48.38244819641114 34.232954025268562 50.016073226928718 -44.229770660400384 -15.837640285491942 -25.055555343627926 7.5608320236206064 -9.2777776718139631 28.541617393493656 -45.166666030883782 17.525495529174808
decision_type=2 2 2 2 2 2 2 2 2 2 2 2 2 2 2 2 2 2 2 2 2 2 2 2 2 2 2 2 2 2
left_child=1 4 3 5 13 7 -7 10 -9 -3 -2 -12 19 14 -1 20 -17 -6 -11 -13 -4 22 -22 -14 25 -21 28 -27 -26 -20
right_child=2 9 15 -5 17 6 -8 8 -10 18 11 12 23 -15 -16 16 -18 -19 29 24 21 -23 -24 -25 26 27 -28 -29 -30 -31
leaf_value=0.19774678199552001 -0.79875930180493748 -0.13608816675841809 -0.25738406554371324 -0.51030198890690837 0.77149688837140107 2.1516951704025269 -0.27682617436475859 0.69314430404353788 4.3560146754980087 -1.2869108926150949 0.28299716519735135 -0.59688198506832124 2.087359069966312 -0.73438350266807684 2.4262936778690509 -1.2006980214800154 -0.19752495732131622 3.2772058904170991 -1.3789159237755382 3.5937569594383243 2.6712923574447633 -1.1339249541682583 0.49683870759275228 0.11341408092419475 0.90867104392360754 2.082165002822876 1.0827988000296884 -0.28377162367105485 -1.3750988779396849 -0.51086101644742887
leaf_weight=100 50 264 294 149 43 30 271 37 20 300 576 30 21 91 23 133 278 20 115 30 20 31 225 239 27 31 540 24 29 595
leaf_count=100 50 264 294 149 43 30 271 37 20 300 576 30 21 91 23 133 278 20 115 30 20 31 225 239 27 31 540 24 29 595
internal_value=-3.23977e-09 -0.501012 0.251886 0.445476 0.387975 0.518321 -0.0347809 0.618976 1.97836 -0.6943 0.570457 0.614711 0.811484 0.0408903 0.614467 -0.163316 -0.522153 1.56696 -0.840209 1.00845 0.0954245 0.471242 0.674345 0.272848 1.07917 1.94764 0.955315 1.04976 -0.273996 -0.651461
internal_weight=4636 1551 3085 2104 277 1955 301 1654 57 1274 1597 1547 971 214 123 981 411 63 1010 711 570 276 245 260 681 85 596 55 56 710
internal_count=4636 1551 3085 2104 277 1955 301 1654 57 1274 1597 1547 971 214 123 981 411 63 1010 711 570 276 245 260 681 85 596 55 56 710
is_linear=0
shrinkage=0.05


Tree=32
num_leaves=31
num_cat=0
split_feature=44 60 35 48 52 32 24 29 6 0 38 25 40 17 38 61 49 8 46 20 42 3 45 12 18 11 24 53 23 60
split_gain=214505 90875.3 84682.6 61093.7 64703.4 62502.7 57341.1 52171.8 56178.9 43968.7 43291.8 39375.9 36145.2 35697.2 33643.1 42520.9 33238.7 32811.4 32215.4 32159.7 31580.2 30184.6 41040.6 32242.7 29757.1 28468.9 29762.3 27956.8 29286.3 27503.7
threshold=16.391827583312992 -39.839237213134759 -1.9883555769920347 64.57782363891603 -39.531015396118157 41.59700012207032 51.338346481323249 39.508747100830085 23.952604293823246 -38.539876937866204 27.660417556762699 -29.222222328186032 -37.090200424194329 -23.275934219360348 -5.8234407901763907 33.261440277099616 -39.117454528808587 55.660690307617195 56.792455673217781 29.001777648925785 -43.650470733642571 37.788856506347663 23.773470878601078 -51.994670867919915 -66.722221374511705 -35.896722793579094 52.65806961059571 41.120111465454109 -16.237651824951168 -52.368143081665032
decision_type=2 2 2 2 2 2 2 2 2 2 2 2 2 2 2 2 2 2 2 2 2 2 2 2 2 2 2 2 2 2
left_child=1 3 9 4 5 20 19 8 16 24 11 -11 18 -5 -15 -16 21 -9 -4 -3 29 22 -8 -24 -2 -22 -27 28 -6 -1
right_child=2 6 12 13 27 -7 7 17 -10 10 -12 -13 -14 14 15 -17 -18 -19 -20 -21 25 -23 23 -25 -26 26 -28 -29 -30 -31
leaf_value=-1.9350481833181075 0.18583295734032343 -0.71908516861699734 -0.66561006810432222 -0.0012759551046842552 -0.49427389762955753 2.9084519820846619 -0.40009732166926065 -0.992709359000711 -0.11203328158757458 1.5876523945108056 1.0599244697440056 -0.45058737970777846 -1.1584232566181853 0.039061390633805322 2.4704083138498767 0.58696686433207601 2.3539662812207198 1.3968163716793063 0.71993698055545496 0.35607335317804251 -0.48428917409231265 -0.4619973983902198 3.3878645891493018 1.3659381436203657 2.7579837864095516 0.29316701394007 1.6454952874841791 -1.1195928501980004 0.95654232149061402 -0.20570966048856798
leaf_weight=31 23 74 333 166 411 20 30 51 73 25 62 454 434 59 58 62 74 20 48 1157 96 26 22 190 22 267 48 173 38 89
leaf_count=31 23 74 333 166 411 20 30 51 73 25 62 454 434 59 58 62 74 20 48 1157 96 26 22 190 22 267 48 173 38 89
internal_value=4.71648e-10 0.22382 -0.516814 -0.0580218 -0.230047 0.164505 0.472996 0.932859 1.14714 -0.0583793 -0.18329 -0.344207 -0.846438 0.526865 1.01665 1.4973 1.41591 -0.319604 -0.491053 0.291442 0.0611543 1.15689 1.33082 1.57576 1.44333 0.269508 0.499236 -0.579562 -0.371488 -0.652455
internal_weight=4636 3235 1401 1518 1173 551 1717 486 415 586 541 479 815 345 179 120 342 71 381 1231 531 268 242 212 45 411 315 622 449 120
internal_count=4636 3235 1401 1518 1173 551 1717 486 415 586 541 479 815 345 179 120 342 71 381 1231 531 268 242 212 45 411 315 622 449 120
is_linear=0
shrinkage=0.05


Tree=33
num_leaves=31
num_cat=0
split_feature=66 60 28 40 38 52 41 53 57 49 8 6 17 11 2 4 13 22 17 49 10 4 63 26 30 5 12 45 25 8
split_gain=197042 113776 65751.9 59971.5 49175.5 48552.9 43738 49657.5 36036.4 34197.7 34184.4 39314.3 33190.9 43834.5 43967.2 36572.1 53766.7 31799.9 29823.1 30359.7 36503 28586.6 37282 27211 26818 37096.2 27028.8 26421 26308.8 31092.9
threshold=0.94896170496940624 -50.999176025390618 38.12011909484864 -27.148934364318844 4.5421476364135751 -32.997600555419915 22.040817260742191 52.174058914184577 -25.577492713928219 -54.190839767456048 55.55688667297364 14.010768413543703 -20.058847427368161 -33.878873825073235 36.006605148315437 -29.526442527770993 -29.259898185729977 33.632110595703132 -17.743203163146969 -44.961730957031243 57.964502334594734 37.016073226928718 26.723464965820316 -40.83453178405761 42.288951873779304 -52.72619438171386 -28.356831550598141 27.431524276733402 -29.222222328186032 44.649187088012702
decision_type=2 2 2 2 2 2 2 2 2 2 2 2 2 2 2 2 2 2 2 2 2 2 2 2 2 2 2 2 2 2
left_child=1 27 28 6 5 8 7 24 23 -6 -5 -12 -11 -14 -15 -16 -17 18 -10 20 21 22 -20 -4 26 -26 -2 -1 29 -3
right_child=3 2 4 10 9 -7 -8 -9 17 12 11 -13 13 14 15 16 -18 -19 19 -21 -22 -23 -24 -25 25 -27 -28 -29 -30 -31
leaf_value=0.22623469221348669 -0.023794309808327273 0.780231113433838 -0.71240024331368901 -1.1106018124687658 -0.42242131964995133 -0.52302233492044492 -0.60132531802911238 2.4584300962361425 0.18519065782537558 0.30045693510673882 -0.64186010662331638 1.6199072698056698 -0.031220688477710441 0.83207052830081674 3.9782702176467235 3.5170148735954649 0.21832390864690146 -0.82182122802330282 2.9383546731688761 2.2047573235299853 -0.3568762650092443 -0.089507297908558575 0.78151915961620855 0.72183552006395857 1.5653811420093884 -0.51690493038722451 -1.4069924614259177 -1.067361901883392 0.61220070505876922 3.3253611969947814
leaf_weight=49 222 30 171 442 101 368 392 22 543 492 83 25 81 149 23 21 30 59 33 36 63 34 51 41 55 35 42 203 720 20
leaf_count=49 222 30 171 442 101 368 392 22 543 492 83 25 81 149 23 21 30 59 33 36 63 34 51 41 55 35 42 203 720 20
internal_value=-6.7247e-10 0.205446 0.289386 -0.517199 0.155296 -0.0299917 -0.231778 0.153494 0.145988 0.444278 -0.91575 -0.118303 0.554248 0.96499 1.32684 2.32307 1.57661 0.296385 0.383193 0.878654 0.614899 1.13373 1.62885 -0.435024 0.0102494 0.755603 -0.243849 -0.815829 0.689219 1.79828
internal_weight=4636 3318 3066 1318 2296 1399 768 376 1031 897 550 108 796 304 223 74 51 819 760 217 181 118 84 212 354 90 264 252 770 50
internal_count=4636 3318 3066 1318 2296 1399 768 376 1031 897 550 108 796 304 223 74 51 819 760 217 181 118 84 212 354 90 264 252 770 50
is_linear=0
shrinkage=0.05


Tree=34
num_leaves=31
num_cat=0
split_feature=44 36 9 38 45 52 22 41 46 57 52 0 40 32 16 17 41 8 5 27 15 35 14 59 36 47 41 3 44 20
split_gain=181240 110967 77795.1 51518.2 44969.3 61871.6 42732.4 45044.8 40267.6 50123 36679 63500.7 39700.2 35925 35372.4 41042.5 34843.4 35423.6 37268 34380.1 32576.5 29350.4 30855.9 30340.1 27924.1 50789.4 33251 29772.8 28576.7 26562.6
threshold=29.528487205505375 26.638891220092777 39.132183074951179 -28.638331413269039 44.982080459594734 -40.714168548583977 -17.637593269348141 17.834927558898929 50.038835525512702 -11.017169475555418 -42.486343383789055 -34.226739883422844 -35.753370285034173 35.041168212890632 -31.612523078918453 -25.668208122253414 -32.101676940917962 57.33674621582032 -65.295303344726548 -52.722223281860344 46.448459625244148 39.108863830566413 -72.92208099365233 -25.586127281188961 -52.166666030883782 -59.00526046752929 33.149942398071296 30.150729179382328 5.2241320610046396 37.932832717895515
decision_type=2 2 2 2 2 2 2 2 2 2 2 2 2 2 2 2 2 2 2 2 2 2 2 2 2 2 2 2 2 2
left_child=1 10 3 8 6 -6 -5 21 -3 -10 13 12 -12 14 15 -1 -14 18 -18 -13 -19 22 -8 -24 25 26 -21 -26 -27 -20
right_child=-2 2 -4 4 5 -7 7 -9 9 -11 11 19 16 -15 -16 -17 17 20 29 24 -22 -23 23 -25 27 28 -28 -29 -30 -31
leaf_value=0.68281469383138305 -0.86922943282542708 -0.90573681933611505 -0.83295085540262326 -0.4068501421296562 2.9291991027918733 0.41614445042453313 2.0486369566122691 -0.19169246715397087 -0.45037286304451274 0.70164585343429031 2.5831766180694107 -1.8983692867415294 -0.75323621460369661 2.7892692270102324 0.27102991062982945 2.963371894289466 2.3419626914537868 3.3665533521901008 -0.014686250707341565 -0.69039835865082955 1.1897246051689281 -0.98388839248153903 0.034987280452279029 0.64700742104383946 0.19237772533313391 3.6439546918869024 1.7516290941834449 -0.72141689401797271 0.97109458312392238 1.3434834475318591
leaf_weight=47 531 221 295 343 33 95 30 454 290 140 32 21 35 27 113 34 26 23 144 46 68 36 324 540 470 20 20 110 20 48
leaf_count=47 531 221 295 343 33 95 30 454 290 140 32 21 35 27 113 34 26 23 144 46 68 36 324 540 470 20 20 110 20 48
internal_value=-1.6295e-09 0.112439 -0.0649367 0.025472 0.159773 1.06404 0.092751 0.216568 -0.357213 -0.075297 0.493442 0.373652 0.898654 1.08047 0.842646 1.64009 0.741954 0.911312 0.565429 0.0944429 1.73991 0.41587 0.472236 0.4175 0.155447 0.901653 0.04961 0.0190718 2.30752 0.324856
internal_weight=4636 4105 2801 2506 1855 128 1727 1384 651 430 1304 1083 376 221 194 81 344 309 218 707 91 930 894 864 686 106 66 580 40 192
internal_count=4636 4105 2801 2506 1855 128 1727 1384 651 430 1304 1083 376 221 194 81 344 309 218 707 91 930 894 864 686 106 66 580 40 192
is_linear=0
shrinkage=0.05


Tree=35
num_leaves=31
num_cat=0
split_feature=44 48 50 60 48 47 20 41 24 20 51 60 41 20 19 36 45 59 55 29 49 8 20 9 45 30 55 53 46 47
split_gain=164532 77218.2 68502.9 68027.3 60963.1 52676.7 40937.6 39081.4 34919.2 41229.2 31908.4 31900.7 36451.8 31833.4 31829.6 33126.6 31249 30989.8 29839.7 30119 53918.6 29212.3 28043.1 26134.1 26015.8 26034.6 26162.1 26731.2 21918.3 21889.1
threshold=16.391827583312992 33.093730926513679 -27.050202369689938 -40.630849838256829 64.57782363891603 -66.047546386718736 32.880661010742195 29.640024185180668 51.338346481323249 52.867046356201179 -50.099611282348626 -45.832046508789055 -19.906287193298336 45.468055725097663 -53.625833511352532 18.054184913635257 27.003714561462406 21.776164054870609 65.866729736328139 39.508747100830085 -32.582901000976555 55.660690307617195 30.419935226440433 15.611673355102541 22.973833084106449 -23.088376045227047 66.916206359863295 51.566450119018562 61.074497222900398 -68.311340332031236
decision_type=2 2 2 2 2 2 2 2 2 2 2 2 2 2 2 2 2 2 2 2 2 2 2 2 2 2 2 2 2 2
left_child=1 5 17 4 6 -1 -3 11 22 18 -6 -4 -13 16 -8 -16 -12 28 19 20 -10 -21 -5 -17 -24 26 27 -26 -2 -25
right_child=2 3 7 8 10 -7 14 -9 9 -11 13 12 -14 -15 15 23 -18 -19 -20 21 -22 -23 24 29 25 -27 -28 -29 -30 -31
